tree
version=v4
num_class=1
num_tree_per_iteration=1
label_index=0
max_feature_idx=4
objective=binary sigmoid:1
feature_names=SD_MAX_DIAS_MORA_SSFF_06M MAX_PORC_DEUDA_SOBREGIRO_CUENTA_CORRIENTE_ENTFIN_12M MAX_CNT_ENTIDADES_SSFF_06M NumeroTrabajadores ANTIGUEDAD_RCC_01M
feature_infos=[0:192.61092042422399] [1.14e-08:1] [1:10] [0:1433] [0:57]
tree_sizes=3324 3335 3349 3348 3368 3359 3384 3360 3364 3356 3357 3363 3365 3372 3370 3383 3362 3371 3394 3366 3373 3388 3391 3366 3393 3381 3385 3387 3387 3394 3379 3376 3368 3367 3393 3380 3361 3380 3384 3377 3384 3391 3384 3388 3365 3366 3396 3395 3362 3401 3376 3357 3401 3364 3397 3392 3376 3397 3385 3426 3400 3366 3388 3399 3375 3387 3431 3385 3393 3363 3368 3362 3389 3389 3423 3373 3391 3396 3417 3377 3395 3348 3371 3381 3403 3379 3385 3428 3358 3374 3367 3387 3395 3389 3378 3390 3435 3378 3396 3405

Tree=0
num_leaves=31
num_cat=0
split_feature=0 2 0 1 0 3 2 1 1 2 1 3 0 0 4 3 0 1 0 4 2 0 1 3 1 1 1 1 1 1
split_gain=1352.49 157.703 138.128 90.5521 52.8857 33.9457 40.8046 31.5723 53.0414 29.723 25.908 21.3201 20.1575 21.8828 19.8093 18.5584 18.3969 15.3956 15.0445 14.6884 14.2584 26.0534 13.7629 13.4133 12.6081 12.3374 12.1139 22.1045 11.7671 11.6826
threshold=2.4663835735375357 5.5000000000000009 0.53206016849974402 0.033671453450000007 8.5761291677760081 17.500000000000004 4.5000000000000009 0.0010117603500000001 0.0095880836500000007 3.5000000000000004 0.018466975900000005 16.500000000000004 22.804898970681155 14.311951113005152 54.500000000000007 3.5000000000000004 2.8077258634530304 0.014560098250000002 10.001664306688108 45.500000000000007 2.5000000000000004 6.1400109728032506 0.025184340700000005 5.5000000000000009 0.0023321866500000004 0.27632158020000003 0.015283770650000002 0.00081266195000000011 0.00075551795000000004 0.0021663782000000006
decision_type=2 2 2 2 2 2 2 2 2 2 2 2 2 2 2 2 2 2 2 2 2 2 2 2 2 2 2 2 2 2
left_child=2 3 22 4 11 6 15 28 -9 25 17 20 13 19 -12 18 -3 29 -5 -7 -2 -22 -1 -17 -18 -4 27 -13 -6 -11
right_child=1 16 9 5 7 12 -8 8 -10 10 14 26 -14 -15 -16 23 24 -19 -20 -21 21 -23 -24 -25 -26 -27 -28 -29 -30 -31
leaf_value=-1.2384239838898643 -1.1567347122049876 -1.0386904170142501 -1.2152849920410747 -0.75974100103246933 -1.0469401397488431 -0.95769160869562575 -0.79229172819591076 -0.81830496681869946 -1.051019672969246 -1.1252053664711814 -0.9847933350842244 -1.1989707444291962 -1.1736633243110468 -0.81648359946171145 -1.2320285619585289 -1.143158844704349 -0.9124502076789347 -1.1936388383760781 -0.93327878122856833 -1.1167216290452109 -1.0808450696002621 -0.88717542000480909 -1.1963728805762035 -0.96928331094617093 -0.81975258538277951 -1.1115451112937711 -1.233619579914486 -0.97436739088062052 -1.2344874078904629 -1.0194162004263769
leaf_weight=450.32213258743286 13.679736375808714 4.9912551641464225 38.820873498916626 7.2095907926559475 18.855852842330936 12.940291166305547 22.922801494598389 19.965020656585693 19.22557544708252 36.602537870407104 26.250304937362674 11.64626204967499 7.0247294902801505 6.1004229784011832 3.6972260475158683 5.1761164665222159 19.040714144706726 22.922801494598389 16.267794609069824 10.537094235420225 31.981005311012268 8.8733425140380842 94.09440290927887 31.056698799133301 63.962010622024536 16.267794609069824 15.713210701942442 7.0247294902801505 4.0669486522674552 14.604042887687681
leaf_count=2436 74 27 210 39 102 70 124 108 104 198 142 63 38 33 20 28 103 124 88 57 173 48 509 168 346 88 85 38 22 79
internal_value=-1.12666 -0.968506 -1.2072 -1.00636 -1.05779 -0.941218 -0.905706 -0.986993 -0.932467 -1.12525 -1.09381 -1.10725 -1.02139 -0.985222 -1.01532 -0.949246 -0.85223 -1.12553 -0.879988 -1.02907 -1.06837 -1.03878 -1.23116 -0.994123 -0.841017 -1.18465 -1.16892 -1.11447 -1.08021 -1.09503
internal_weight=1061.84 358.261 703.582 270.267 151.032 119.236 82.633 62.1134 39.1906 159.166 104.077 88.9183 36.6025 29.5778 29.9475 59.7102 87.994 74.1294 23.4774 23.4774 54.5341 40.8543 544.417 36.2328 83.0027 55.0887 34.3842 18.671 22.9228 51.2066
internal_count=5744 1938 3806 1462 817 645 447 336 212 861 563 481 198 160 162 323 476 401 127 127 295 221 2945 196 449 298 186 101 124 277
is_linear=0
shrinkage=1


Tree=1
num_leaves=31
num_cat=0
split_feature=0 2 3 0 0 0 4 3 0 3 3 1 1 2 1 3 0 1 0 3 3 0 3 1 0 1 0 1 2 4
split_gain=1064.05 110.849 61.2027 60.6865 58.0724 57.682 26.0305 19.3852 19.2842 19.0218 18.2193 21.7668 17.6455 19.8528 17.0337 20.8298 19.2987 15.2457 14.1314 16.3573 21.1804 15.7789 13.7905 15.7053 13.2053 13.3582 13.3352 13.159 12.439 14.3018
threshold=1.6380804171854753 4.5000000000000009 3.5000000000000004 0.42773094298191056 6.528143074492001 9.1660569339062921 48.500000000000007 1.5000000000000002 0.90992605339212562 100.00000000000001 15.500000000000002 0.0021663782000000006 0.14635353175000002 3.5000000000000004 0.021075833150000004 3.5000000000000004 2.4663835735375357 0.00039115820000000008 37.92183396773941 38.500000000000007 11.500000000000002 10.630916973068901 18.500000000000004 0.00068702910000000017 22.532926421320102 0.00026332620000000005 39.05978315495566 0.025184340700000005 2.5000000000000004 40.500000000000007
decision_type=2 2 2 2 2 2 2 2 2 2 2 2 2 2 2 2 2 2 2 2 2 2 2 2 2 2 2 2 2 2
left_child=3 2 17 27 6 12 14 8 -5 18 11 -8 13 -4 15 -3 -16 -2 19 20 -7 -22 23 -15 25 -6 -26 -1 -19 -30
right_child=1 4 5 7 24 9 10 -9 -10 -11 -12 -13 -14 22 16 -17 -18 28 -20 -21 21 -23 -24 -25 26 -27 -28 -29 29 -31
leaf_value=-0.10964406396335034 0.020362761721796074 0.25144034328905951 -0.070095287865700739 -0.0053078795337135739 0.087893345360979355 0.059397053590621474 -0.089153986097131044 -0.036189798106038902 0.28684768131726757 0.27827670675568633 -0.065926175169895393 0.17368043598070249 0.070037540889565611 0.2224459009355047 0.052052417259326772 0.068754945495498404 0.25080595215824303 0.099696800568142563 -0.031501776301631611 0.0075714753430220398 0.030736126122858871 0.23133061716588982 -0.044312084797924416 0.029896127967083665 0.11903370353161563 0.24531070463995777 0.30562550411703243 -0.06525336344129172 0.26934913227995261 0.13709854087946413
leaf_weight=403.30925174057484 6.4625564366579047 7.7084856927394858 45.564677536487579 5.5761020481586439 5.7585820704698554 19.36237795650959 4.3853706717491177 121.28522445261478 3.7982444316148758 6.2572989016771308 11.579643219709395 11.192976310849188 25.235014677047729 5.5862947255373028 6.3356614112854031 32.792226314544678 21.342152461409569 12.667445823550223 7.6976594924926749 11.815250173211096 4.7522596418857601 22.4288589656353 16.010532632470131 17.525571584701538 20.678698703646663 84.374961912631989 4.7008124142885199 80.03016197681427 20.202585801482201 13.737219944596289
leaf_count=2315 34 39 251 31 29 99 23 665 20 32 61 56 130 29 32 171 102 65 40 61 24 112 88 91 100 406 23 449 98 68
internal_value=-0.000548772 0.116978 0.069794 -0.0859481 0.169635 0.0422722 0.111867 -0.0254812 0.113066 0.111636 0.0290753 0.0996914 -0.00335998 -0.0252309 0.144846 0.103525 0.20531 0.164301 0.0958512 0.112649 0.139324 0.196259 0.0270212 0.0764367 0.217312 0.235253 0.153594 -0.102294 0.184259 0.21582
internal_weight=1060.15 446.155 235.306 613.999 210.85 182.236 95.3365 130.66 9.37435 72.3137 27.158 15.5783 109.922 84.6871 68.1785 40.5007 27.6778 53.0698 66.0564 58.3587 46.5435 27.1811 39.1224 23.1119 115.513 90.1335 25.3795 483.339 46.6073 33.9398
internal_count=5744 2264 1222 3480 1042 957 484 716 51 368 140 79 589 459 344 210 134 265 336 296 235 136 208 120 558 435 123 2764 231 166
is_linear=0
shrinkage=0.1


Tree=2
num_leaves=31
num_cat=0
split_feature=0 2 1 0 1 1 3 0 0 3 2 3 3 0 0 2 0 1 1 2 3 4 3 2 3 3 1 4 0 0
split_gain=856.158 78.2474 67.342 56.0671 40.0832 54.4693 26.9722 26.339 20.6195 16.9813 16.6878 16.5745 14.9385 14.1044 24.6383 13.872 13.3472 12.6746 12.4669 11.2856 10.356 9.84764 12.7914 14.64 13.6762 9.59069 16.4848 10.2201 9.54964 9.76331
threshold=1.6380804171854753 5.5000000000000009 0.033671453450000007 0.53206016849974402 0.010768739300000002 0.0018219674000000002 17.500000000000004 2.8077258634530304 5.3119341596653609 77.500000000000014 3.5000000000000004 20.500000000000004 1.5000000000000002 1.5756376586213452 1.3477101189765401 3.5000000000000004 13.169408753880051 0.012840057900000002 0.025184340700000005 4.5000000000000009 15.500000000000002 47.500000000000007 4.5000000000000009 2.5000000000000004 24.500000000000004 2.5000000000000004 0.010768739300000002 44.500000000000007 22.804898970681155 14.311951113005152
decision_type=2 2 2 2 2 2 2 2 2 2 2 2 2 2 2 2 2 2 2 2 2 2 2 2 2 2 2 2 2 2
left_child=3 2 4 18 5 12 10 11 -7 28 -4 -3 -2 14 19 -14 20 -16 25 -5 -6 22 23 -20 -24 26 27 -1 29 -8
right_child=1 7 6 13 16 8 9 -9 -10 -11 -12 -13 15 -15 17 -17 -18 -19 21 -21 -22 -23 24 -25 -26 -27 -28 -29 -30 -31
leaf_value=0.20298125775699538 0.17905363836988464 0.14895554289860544 0.10327816089990656 -0.046708992732965776 0.0036276701408301513 0.057610697665852098 0.019311962819587917 0.19014626144037877 0.22169843772461678 0.1489131394978557 0.18623686834843106 -0.026220999703972587 -0.0483372542269754 -0.099504844046759439 0.024791036712463941 0.044206761843497394 0.12864212902238228 0.23882196831997704 -0.066299805956124239 0.036979470335108032 -0.073687046485418614 -0.11042659684049659 -0.090418252502766791 0.17049335848138869 0.030275078092246277 -0.10765787985040982 -0.092534179174137254 -0.018352937272609216 -0.098160554112886864 0.18101214429990609
leaf_weight=3.3348019719123823 5.9795985072851172 11.815724417567255 39.162308290600777 46.152289807796478 37.20765383541584 10.836470693349836 22.015172407031063 101.14260083436966 26.11064039170742 15.677943781018255 63.670612528920174 9.9491275846958143 23.744719058275223 15.587396234273909 5.0406595617532712 50.957394257187843 5.5593140870332709 6.1334687322378159 4.8271610140800458 24.75749671459198 32.420863434672356 27.754593178629875 36.861266225576401 5.6871020346879959 12.596981808543203 363.91241599619389 26.774320289492607 5.5719676315784454 5.4903195798397055 4.4967033118009558
leaf_count=20 30 59 186 256 194 56 110 449 119 75 291 51 130 86 27 259 27 32 28 134 179 161 214 33 73 2219 163 34 29 20
internal_value=-0.000885854 0.100202 0.075691 -0.0814528 0.0365617 0.0730141 0.125818 0.168672 0.173572 0.0636498 0.154643 0.068879 0.0269649 -0.012301 0.0042586 0.0147908 -0.0204669 0.142272 -0.0953125 -0.0174899 -0.0323721 -0.0611764 -0.038384 0.0617802 -0.0596777 -0.102807 -0.0533308 0.0645173 0.0218792 0.0467381
internal_weight=1051.23 466.237 343.33 584.992 192.817 117.629 150.513 122.907 36.9471 47.6801 102.833 21.7649 80.6817 97.6713 82.0839 74.7021 75.1878 11.1741 487.321 70.9098 69.6285 87.7271 59.9725 10.5143 49.4582 399.594 35.6811 8.90677 32.0022 26.5119
internal_count=5744 2264 1705 3480 994 594 711 559 175 234 477 110 419 535 449 389 400 59 2945 390 373 509 348 61 287 2436 217 54 159 130
is_linear=0
shrinkage=0.1


Tree=3
num_leaves=31
num_cat=0
split_feature=0 0 2 1 1 2 1 3 3 0 4 3 2 4 1 3 3 3 4 0 0 2 1 1 3 1 3 3 0 1
split_gain=705.944 97.9442 40.6514 34.6309 23.7318 18.4365 18.6147 17.9274 16.0818 15.6972 15.7484 14.7213 13.8485 13.417 15.5811 12.0586 11.4289 20.345 12.744 11.7471 11.4892 10.4657 9.81676 16.2267 16.1887 10.9283 9.52218 8.91461 8.09125 7.85452
threshold=0.90992605339212562 4.9615160261091402 4.5000000000000009 0.018466975900000005 0.014560098250000002 4.5000000000000009 0.0021663782000000006 3.5000000000000004 3.5000000000000004 1.0000000180025095e-35 39.500000000000007 2.5000000000000004 6.5000000000000009 39.500000000000007 0.00028212225000000002 11.500000000000002 4.5000000000000009 9.5000000000000018 25.500000000000004 9.805607655705197 35.745365564517208 5.5000000000000009 0.00094644775000000015 0.00072457590000000007 16.500000000000004 0.00026332620000000005 3.5000000000000004 1.5000000000000002 1.2415253053016901 0.0081948472500000032
decision_type=2 2 2 2 2 2 2 2 2 2 2 2 2 2 2 2 2 2 2 2 2 2 2 2 2 2 2 2 2 2
left_child=9 3 13 4 5 29 7 -7 -5 -1 11 -11 -10 14 -3 -8 18 -18 -16 -19 -21 -13 23 24 25 -4 -24 -15 -9 -2
right_child=1 2 22 8 -6 6 15 28 12 10 -12 21 -14 27 16 -17 17 19 -20 20 -22 -23 26 -25 -26 -27 -28 -29 -30 -31
leaf_value=-0.097715514071950338 -0.025976280764240151 -0.035848763536154793 -0.034175400603876797 0.19706540761502198 -0.053336658447724443 0.22726010577352684 0.23429747707457282 0.13767876912126892 0.046565612788214972 0.1376735555503554 -0.0902566756497198 -0.05345396755453749 0.17944723036019758 0.14810553738155627 0.07548116691697003 0.063193835376745763 -0.05547087048145203 0.02723647578084747 0.21348392519932513 0.18099041146405681 0.0016897237385858949 0.076663744084778468 0.23634698442346866 -0.058505639959768797 0.2336031477672306 0.16026852184759463 0.15197217661930654 0.037097957418938211 -0.021043640990265854 0.12264256028845893
leaf_weight=377.48472346365452 44.810377553105354 7.032792091369628 6.2022349387407356 10.422649472951887 54.006612733006477 3.9611000716686275 9.2930652201175707 3.7014693021774319 60.327542752027512 5.5775879174470893 61.233761578798294 41.121719151735306 9.0147649496793729 8.07460108399391 10.030822411179544 7.3976272940635672 8.1068979352712613 10.129248633980749 20.101289063692093 23.135378286242489 4.2266690582036963 7.2751659452915183 15.193508669733999 5.459624931216239 9.2777740806341154 5.4131375253200531 111.78345879912376 69.516155496239662 24.274444296956062 3.8626167625188819
leaf_count=2428 244 37 29 46 304 18 42 20 294 31 375 251 41 37 45 37 40 51 87 105 21 42 64 25 41 24 480 339 126 20
internal_value=-0.00111563 0.0773336 0.113727 0.0279298 -0.00017845 0.0293269 0.0728765 0.0281489 0.0812488 -0.0878546 -0.055545 -0.0161649 0.0638407 0.0785247 0.106532 0.158461 0.119755 0.0881748 0.167544 0.119236 0.153293 -0.0338943 0.150541 0.0949991 0.135112 0.0564417 0.162068 0.0486501 -4.32141e-05 -0.0141821
internal_weight=1037.45 544.756 313.684 231.072 151.307 97.3007 48.6277 31.937 79.765 492.693 115.208 53.9745 69.3423 160.354 82.7631 16.6907 75.7303 45.5982 30.1321 37.4913 27.362 48.3969 153.33 26.3528 20.8931 11.6154 126.977 77.5908 27.9759 48.673
internal_count=5744 2617 1425 1192 811 507 243 164 381 3127 699 324 335 762 386 79 349 217 132 177 126 293 663 119 94 53 544 376 146 264
is_linear=0
shrinkage=0.1


Tree=4
num_leaves=31
num_cat=0
split_feature=0 0 2 1 1 1 2 1 3 3 4 3 3 2 2 4 3 3 1 4 1 2 1 3 3 1 1 3 1 3
split_gain=585.413 75.1476 31.142 27.0476 19.4979 16.2195 14.4587 13.8988 13.4398 12.0515 11.5597 11.9115 12.115 16.4256 11.3207 15.9637 11.3452 10.5697 14.635 10.3137 11.9473 9.62415 9.60498 10.722 8.69592 7.4536 12.5408 11.722 8.39522 7.25387
threshold=0.90992605339212562 4.9615160261091402 4.5000000000000009 0.018466975900000005 0.014560098250000002 0.025184340700000005 4.5000000000000009 0.0021663782000000006 3.5000000000000004 3.5000000000000004 47.500000000000007 24.500000000000004 4.5000000000000009 2.5000000000000004 3.5000000000000004 54.500000000000007 6.5000000000000009 2.5000000000000004 0.010768739300000002 39.500000000000007 0.00028212225000000002 2.5000000000000004 0.14635353175000002 18.500000000000004 11.500000000000002 0.00094644775000000015 0.00072457590000000007 16.500000000000004 0.00026332620000000005 11.500000000000002
decision_type=2 2 2 2 2 2 2 2 2 2 2 2 2 2 2 2 2 2 2 2 2 2 2 2 2 2 2 2 2 2
left_child=5 3 19 4 6 17 -2 8 -8 -5 11 12 13 -7 22 16 -16 18 -1 20 -3 -22 -11 -24 -9 26 27 28 -4 -18
right_child=1 2 25 9 -6 10 7 24 -10 14 -12 -13 -14 -15 15 -17 29 -19 -20 -21 21 -23 23 -25 -26 -27 -28 -29 -30 -31
leaf_value=0.061386016261391466 -0.012906182011588786 -0.032863763458062932 -0.031173658174542426 0.16900533534049464 -0.049478012039404558 -0.078958115749866747 0.19138315425206692 0.19756651201007785 -0.00011102269078611896 -0.13276171906415674 -0.10124560172436706 0.051187627205413533 -0.077432610491250664 0.14876025852986133 -0.058283905709121647 -0.095878890188567184 0.19218731833885186 -0.098427780934136122 -0.081795363961913642 0.042952610697013477 0.049826559222375784 0.12695543588823127 0.10948408017574168 -0.063116112622282602 0.055285503132539007 0.14102546017012693 -0.053806667080839136 0.19788630062589857 0.13784751998164366 0.091922618111424603
leaf_weight=10.024183377623556 48.299820110201836 6.9110482931137076 6.1237899214029365 10.907911852002142 52.478853836655617 6.2636772990226728 4.2172964066267005 9.8818351030349749 27.990029484033585 4.7493389397859582 26.929861381649971 16.128326952457428 36.144911676645279 6.4081978648900986 4.2252510339021674 4.6672689765691748 9.1928175538778287 339.68760296702385 24.80019611120224 78.9831233471632 22.899366766214371 55.119086816906929 7.9218475371599197 6.5957135558128357 7.5986865311861029 131.07737644016743 5.3487524390220633 9.8228565454483014 5.6499317288398743 33.548408851027489
leaf_count=60 264 37 29 46 304 38 18 42 146 26 175 94 230 35 19 24 41 2327 168 376 107 242 38 33 37 544 25 41 24 154
internal_value=-0.00125253 0.0682243 0.0995022 0.0248728 -0.000289013 -0.0838122 0.0260549 0.0639277 0.0249636 0.0711518 -0.046161 -0.0233198 -0.0479359 0.0361996 0.0560973 0.0805063 0.0980345 -0.0930488 -0.0405807 0.068964 0.0931542 0.104317 -0.00931702 0.0310672 0.135718 0.131179 0.0832774 0.117229 0.0499356 0.113488
internal_weight=1020.6 554.21 321.935 232.275 150.467 466.387 97.9877 49.6878 32.2073 81.8086 91.875 64.9451 48.8168 12.6719 70.9006 51.6337 46.9665 374.512 34.8244 163.913 84.9295 78.0185 19.2669 14.5176 17.4805 158.023 26.9453 21.5966 11.7737 42.7412
internal_count=5744 2617 1425 1192 811 3127 507 243 164 381 572 397 303 73 335 238 214 2555 228 762 386 349 97 71 79 663 119 94 53 195
is_linear=0
shrinkage=0.1


Tree=5
num_leaves=31
num_cat=0
split_feature=0 0 2 1 3 1 1 2 1 2 0 0 3 4 4 1 3 1 2 4 3 3 3 2 4 3 2 3 3 4
split_gain=488.306 59.9344 31.8547 25.6933 19.4079 23.6711 19.4847 15.511 15.2544 14.975 13.4994 12.4845 11.1702 10.9621 10.4497 10.6915 9.99345 12.3805 9.19889 10.8353 8.05311 8.04758 9.49073 8.3397 7.93892 10.8526 11.147 8.95154 7.90919 7.32658
threshold=0.90992605339212562 3.6810261985459651 5.5000000000000009 0.018466975900000005 16.500000000000004 0.00039115820000000008 8.8462450000000012e-05 4.5000000000000009 0.025184340700000005 4.5000000000000009 3.9433437343161057 5.0612307493025561 3.5000000000000004 27.500000000000004 47.500000000000007 0.051150035350000005 2.5000000000000004 0.010768739300000002 3.5000000000000004 53.500000000000007 10.500000000000002 44.500000000000007 3.5000000000000004 2.5000000000000004 29.500000000000004 9.5000000000000018 5.5000000000000009 12.500000000000002 1.0000000180025095e-35 42.500000000000007
decision_type=2 2 2 2 2 2 2 2 2 2 2 2 2 2 2 2 2 2 2 2 2 2 2 2 2 2 2 2 2 2
left_child=8 3 4 9 5 6 -3 10 16 -2 -7 -6 28 -13 15 -10 17 -1 -5 -20 -9 22 23 -17 27 26 -26 -11 -12 -30
right_child=1 2 -4 18 11 7 -8 20 14 24 12 13 -14 -15 -16 21 -18 -19 19 -21 -22 -23 -24 -25 25 -27 -28 -29 29 -31
leaf_value=0.053298211373661954 -0.044492013686916021 0.1962046610052528 0.13251392792279104 0.0051599708347083856 -0.070157380010171355 0.33022291627495587 -0.061028389734482782 0.11513022082632962 0.13264558645656183 0.0034372055789198552 -0.0024318665382910792 0.13804158780554918 0.045477514410979233 0.02925255386566334 -0.097504185777002761 -0.062177969233313625 -0.094842377452362167 -0.077860360934497025 0.10478634489004919 -0.05443708189751572 0.20053422321398173 0.05728503825847775 -0.069549501388395218 0.11560452636006538 -0.0087254636403990681 -0.028818603431921004 0.1519170645876719 0.18576006724697472 0.15300059649601458 0.058291283216469307
leaf_weight=10.370810538530348 65.855218842625618 3.5748206675052669 99.291728049516678 18.20293140411377 11.031451627612112 2.0877502709627143 16.705730482935905 29.538513585925102 4.2024267613887778 4.9669406116008741 5.4279637336730948 10.602739572525023 61.03125187754631 73.270560368895531 25.254132479429245 4.7572854906320554 318.38570091128349 23.515873000025749 42.586226388812065 4.7506814152002326 17.63121272623539 8.5731220692396146 40.448774665594101 5.9246649444103241 8.7462403476238268 30.094166070222855 8.5345025509595853 5.881669819355011 28.828006535768509 11.397262915968893
leaf_count=60 382 18 403 90 61 10 85 124 25 23 23 47 279 342 175 30 2327 168 188 25 72 49 263 30 47 161 38 30 120 49
internal_value=-0.00134455 0.0606496 0.0840554 0.0149265 0.066309 0.0859433 -0.0156863 0.0991604 -0.0799954 -0.0118266 0.0783917 0.0298513 0.0734635 0.043005 -0.043045 -0.0215241 -0.0893475 -0.0377201 0.0655749 0.0888069 0.147053 -0.0323758 -0.0474093 0.0364278 0.0251205 0.00745014 0.0706116 0.102285 0.110876 0.126166
internal_weight=1001.47 560.038 370.419 189.619 271.127 176.223 20.2806 155.942 441.433 124.079 108.772 94.9048 106.684 83.8733 89.1604 63.9063 352.272 33.8867 65.5398 47.3369 47.1697 59.7038 51.1307 10.682 58.2235 47.3749 17.2807 10.8486 45.6532 40.2253
internal_count=5744 2617 1633 984 1230 780 103 677 3127 681 481 450 471 389 572 397 2555 228 303 213 196 372 323 60 299 246 85 53 192 169
is_linear=0
shrinkage=0.1


Tree=6
num_leaves=31
num_cat=0
split_feature=0 0 1 4 1 2 0 4 1 3 0 3 4 0 1 2 1 1 1 3 0 0 0 1 3 1 1 1 3 4
split_gain=408.785 47.9526 20.6818 19.6035 19.5565 19.2939 15.4074 13.4901 12.9687 10.7036 9.53751 9.31128 8.80215 8.73758 15.0136 8.68619 8.38625 12.2265 9.44631 8.35555 8.23057 8.46067 7.92568 7.47608 7.05513 6.78627 11.5456 13.3216 9.83017 9.77703
threshold=0.90992605339212562 6.5472462443308315 0.021075833150000004 48.500000000000007 0.014560098250000002 4.5000000000000009 1.0000000180025095e-35 39.500000000000007 0.0032667741500000003 15.500000000000002 56.199719857357607 2.5000000000000004 19.500000000000004 2.9804593428508506 0.00094644775000000015 5.5000000000000009 0.0027408486500000002 0.0020636332000000005 0.00075551795000000004 21.500000000000004 22.532926421320102 39.05978315495566 14.752367019059252 0.025184340700000005 7.5000000000000009 0.033671453450000007 0.010768739300000002 0.0019951942500000003 1.5000000000000002 32.500000000000007
decision_type=2 2 2 2 2 2 2 2 2 2 2 2 2 2 2 2 2 2 2 2 2 2 2 2 2 2 2 2 2 2
left_child=6 2 4 -4 8 10 12 11 13 24 25 -8 -1 16 -15 -13 17 18 -2 -6 22 -22 -7 -14 -5 26 27 -3 -28 -29
right_child=1 5 3 9 19 20 7 -9 -10 -11 -12 15 23 14 -16 -17 -18 -19 -20 -21 21 -23 -24 -25 -26 -27 28 29 -30 -31
leaf_value=0.0079816127960175252 0.010739020318182907 0.019931234954861193 0.088288506789344981 -0.012060410924295693 -0.013723152399712325 0.11110561144963045 0.11149869555752412 -0.0781348220549829 0.098645217353680842 -0.073880925233859793 -0.072095737472287119 -0.040982672381248766 -0.097044369436294672 0.016083856072866484 0.16681330426000415 0.079457249048106499 -0.14498151213196403 0.13196835650160307 -0.087330760587035067 -0.090125679152583682 0.038395987190338779 0.17456130927759725 0.18330521245289541 -0.054756368552006864 0.13150203535899507 0.083944129439158355 0.12109775339450829 0.20947750716234603 -0.054847220272981979 0.066987036926092536
leaf_weight=9.4198444187641126 35.031618610024452 24.851449713110924 73.698691159486771 7.7951085865497607 42.545534804463387 87.688585937023163 6.0005207210779181 52.011144697666168 21.897631451487541 13.566488295793532 5.4176623672246924 36.683092266321182 256.70880746841431 27.904319241642952 8.6588982343673688 7.1562732011079779 4.2939354926347724 6.2356122732162467 13.648431092500685 21.571405723690987 24.149151071906093 5.6263832300901404 18.39357927441597 49.938882514834404 6.1033359318971634 73.668480545282364 3.909895688295367 8.6712733954191226 16.905288830399513 10.829266056418417
leaf_count=71 192 121 319 36 236 359 31 375 101 70 26 251 2016 138 40 42 21 29 76 134 100 23 74 341 27 316 17 35 82 45
internal_value=-0.00140411 0.05421 0.025174 0.0614157 0.00500567 0.0835405 -0.0763331 -0.042509 0.0292169 -0.0106942 0.0580707 -0.00533113 -0.0872327 0.0133427 0.0517796 -0.0213222 -0.0103929 0.000130762 -0.0167568 -0.0394279 0.110584 0.0641258 0.123624 -0.0901576 0.0509833 0.0631501 0.0396434 0.0684789 -0.021798 0.130348
internal_weight=980.981 563.062 282.951 101.164 181.787 280.111 417.919 101.851 117.67 27.4649 144.253 49.8399 316.068 95.7728 36.5632 43.8394 59.2096 54.9157 48.68 64.1169 135.858 29.7755 106.082 306.648 13.8984 138.836 65.1672 44.352 20.8152 19.5005
internal_count=5744 2617 1419 452 967 1198 3127 699 597 133 642 324 2428 496 178 293 318 297 268 370 556 123 433 2357 63 616 300 201 99 80
is_linear=0
shrinkage=0.1


Tree=7
num_leaves=31
num_cat=0
split_feature=0 0 2 3 1 1 2 0 1 4 2 1 4 0 3 4 1 3 3 1 3 4 0 0 1 0 2 4 0 1
split_gain=342.799 39.4098 25.964 16.8125 19.4033 18.8648 15.8219 14.4883 12.8041 11.9011 11.798 12.9168 11.6395 9.91326 9.40126 8.08561 7.99468 7.64233 9.88453 7.35287 7.25864 7.25192 7.21325 7.17918 7.71859 7.14197 6.97898 6.51262 6.45504 6.82759
threshold=0.90992605339212562 2.9068191008750803 5.5000000000000009 16.500000000000004 0.00039115820000000008 8.7310000000000016e-05 3.5000000000000004 1.0000000180025095e-35 0.27632158020000003 39.500000000000007 4.5000000000000009 0.0050279680000000016 27.500000000000004 5.0612307493025561 1.5000000000000002 19.500000000000004 0.054961572750000007 79.000000000000014 3.5000000000000004 0.025184340700000005 2.5000000000000004 40.500000000000007 4.234769341445956 10.208656163743852 0.010768739300000002 24.908164476736903 5.5000000000000009 7.5000000000000009 6.528143074492001 0.022901796100000003
decision_type=2 2 2 2 2 2 2 2 2 2 2 2 2 2 2 2 2 2 2 2 2 2 2 2 2 2 2 2 2 2
left_child=7 6 3 4 5 -3 8 15 -2 20 11 -6 -5 -14 -8 27 -13 18 -4 -17 -9 22 -20 24 -23 -25 -22 -1 29 -12
right_child=1 2 17 12 10 -7 14 9 -10 -11 28 16 13 -15 -16 19 -18 -19 21 -21 26 23 -24 25 -26 -27 -28 -29 -30 -31
leaf_value=-0.11866819985622185 -0.079401554951296097 0.17389084649133804 0.17915602748603618 0.10478447968180869 0.13772446241107 -0.06523074896247609 0.16677960641535752 0.095392250033564593 0.041794860749995499 -0.074327591475028293 0.01824316332475636 0.0087377141158304587 -0.065715469940369614 0.020072924981779091 0.019716306762022018 -0.09393431533912952 0.067652978131528471 0.15519009924583718 0.0076790988232039092 -0.051135153455497552 -0.037916535103839466 0.057465585426345223 0.13118554220505108 0.12574772443119381 -0.07634415987459417 -0.0084549404009641969 0.068400378882275487 0.061800163268921605 0.1416162507974113 0.15609432044741525
leaf_weight=2.8683796823024732 31.163844436407089 4.0415619313716915 11.332500874996184 13.290003299713133 18.624647364020348 17.962752848863602 4.528222367167472 6.2949464768171302 12.102194100618361 49.348206281661987 10.530647575855253 35.350979208946228 16.431397706270218 74.730859249830246 108.54353399574757 239.5774859637022 66.099543839693069 25.019160658121109 5.6285271346569052 48.220033809542656 35.73579803109169 10.418998032808306 29.582809135317802 14.630988448858263 7.3532361239194861 5.4398606568574897 7.4638763368129721 6.6024435758590698 36.072786793112755 5.4536044895648947
leaf_count=22 200 19 46 59 82 93 19 31 57 375 49 166 94 342 549 2016 277 101 23 341 251 43 119 59 30 22 42 49 146 22
internal_value=-0.0014348 0.0486176 0.0649759 0.0497058 0.0671112 -0.021311 0.00592719 -0.0727435 -0.045501 -0.0395769 0.0784145 0.0611766 0.0173558 0.00461013 0.0256058 -0.0837716 0.0471236 0.106651 0.0922598 -0.0867634 -0.00492895 0.0787801 0.111443 0.0483887 0.002102 0.0893744 -0.0195475 0.00714264 0.118176 0.0652761
internal_weight=960.444 564.333 407.995 298.589 194.137 22.0043 156.338 396.111 43.266 98.8428 172.132 120.075 104.452 91.1623 113.072 297.268 101.451 109.406 84.3869 287.798 49.4946 73.0544 35.2113 37.8431 17.7722 20.0708 43.1997 9.47082 52.057 15.9843
internal_count=5744 2617 1792 1349 854 112 825 3127 257 699 742 525 495 436 568 2428 443 443 342 2357 324 296 142 154 73 81 293 71 217 71
is_linear=0
shrinkage=0.1


Tree=8
num_leaves=31
num_cat=0
split_feature=0 0 2 3 1 1 2 1 0 2 3 4 4 4 0 3 4 1 3 3 1 0 0 4 0 3 1 1 1 4
split_gain=288.357 32.9426 21.7561 13.5738 15.5804 14.8647 12.7349 12.8455 12.6189 10.3894 9.49974 13.7317 9.2135 8.5065 8.24159 7.5858 7.38371 7.21474 6.31666 8.40046 6.39306 7.28 10.3542 6.42843 6.96561 6.23496 5.70667 7.16121 10.3296 8.44643
threshold=0.82657830373090113 2.9068191008750803 5.5000000000000009 16.500000000000004 0.00039115820000000008 8.7310000000000016e-05 3.5000000000000004 0.27632158020000003 1.0000000180025095e-35 2.5000000000000004 6.5000000000000009 26.500000000000004 27.500000000000004 39.500000000000007 5.0612307493025561 1.5000000000000002 19.500000000000004 0.025184340700000005 79.000000000000014 3.5000000000000004 0.0023321866500000004 24.908164476736903 9.1660569339062921 39.500000000000007 4.234769341445956 2.5000000000000004 0.00065701915000000017 0.00094644775000000015 0.0024850783500000007 52.500000000000007
decision_type=2 2 2 2 2 2 2 2 2 2 2 2 2 2 2 2 2 2 2 2 2 2 2 2 2 2 2 2 2 2
left_child=8 6 3 4 5 -3 7 -2 16 10 11 -6 -5 25 -14 -8 -1 -18 19 -4 -21 22 23 24 -22 -10 -11 -28 -29 -30
right_child=1 2 18 12 9 -7 15 -9 13 26 -12 -13 14 -15 -16 -17 17 -19 -20 20 21 -23 -24 -25 -26 -27 27 28 29 -31
leaf_value=0.0061639441830545517 -0.076576820910003174 0.14743858677012464 0.16482341977110521 0.092593556387870923 -0.05805705255428717 -0.060645784109318771 0.14851080776617562 0.041692989489424057 0.082555577262031388 0.17312527521260979 -0.057962122039031554 0.13602416948917181 -0.061350064349139935 -0.06882451841710345 0.017956622612737984 0.01710248876165776 -0.090916653325110119 -0.04767549409044506 0.14130842348090178 0.018381189996782694 0.0048103148851020737 -0.0038719192682963111 0.15014731951637866 -0.0057899359456436384 0.149020407836607 -0.022681385715585228 -0.033041499824581058 0.1821606113189054 0.082931480168642685 0.0012674722436934072
leaf_weight=9.5171529948711378 30.581241294741631 4.2757853716611889 11.097408115863798 13.522120177745817 5.8336967378854778 17.417900279164314 4.5736497044563285 13.124711275100706 6.5325111001729956 6.3935817033052436 11.074148580431936 9.7189313918352109 15.870527699589728 45.168239653110504 75.160423278808594 111.18668407201767 223.606939047575 46.632584616541862 24.741856753826141 17.314684972167015 5.1425900161266354 7.4583306163549414 23.266592890024185 9.7893342673778516 9.6056298762559873 40.743293970823288 5.7223113775253287 9.4199648797512037 110.36074364185333 14.307097449898718
leaf_count=71 207 19 46 59 26 93 19 62 31 27 53 44 94 362 342 561 2016 341 101 71 21 30 95 40 39 282 26 40 464 62
internal_value=-0.00143317 0.0434628 0.058542 0.0446301 0.0602486 -0.0196327 0.00493019 -0.0410609 -0.0698216 0.0702753 0.0128232 0.0632255 0.0155713 -0.0377904 0.00413013 0.0222944 -0.0804062 -0.083455 0.0969193 0.0837938 0.0714039 0.0880169 0.102353 0.0570347 0.0987355 -0.00813987 0.0807386 0.0765137 0.081189 0.0735596
internal_weight=939.161 566.96 407.494 299.077 194.524 21.6937 159.466 43.706 372.201 172.83 26.6268 15.5526 104.553 92.444 91.031 115.76 279.757 270.24 108.416 83.6746 72.5772 55.2625 47.8041 24.5376 14.7482 47.2758 146.204 139.81 134.088 124.668
internal_count=5744 2641 1792 1349 854 112 849 269 3103 742 123 70 495 675 436 580 2428 2357 443 342 296 225 195 100 60 313 619 592 566 526
is_linear=0
shrinkage=0.1


Tree=9
num_leaves=31
num_cat=0
split_feature=0 0 2 0 1 2 3 1 1 2 0 3 4 3 4 2 4 0 4 1 1 0 0 1 0 1 0 0 3 0
split_gain=242.69 26.84 18.5699 11.8396 10.9714 14.763 10.9687 12.5077 11.8872 9.91381 10.0651 9.72547 8.73881 7.54393 9.51023 7.89245 7.49589 7.38788 7.1742 6.36362 6.93126 6.03569 7.20018 7.77601 13.9278 13.3828 10.4733 9.10079 5.767 5.45251
threshold=0.82657830373090113 2.9068191008750803 5.5000000000000009 1.0000000180025095e-35 0.27632158020000003 3.5000000000000004 16.500000000000004 0.00039115820000000008 8.7310000000000016e-05 4.5000000000000009 3.1517013620028256 3.5000000000000004 23.500000000000004 4.5000000000000009 27.500000000000004 2.5000000000000004 39.500000000000007 5.3119341596653609 40.500000000000007 0.97992212215000019 0.014560098250000002 6.0511692752664459 8.7426126063838883 0.00043995525000000004 22.804898970681155 0.0010117603500000001 14.1521494122484 10.530114798815552 7.5000000000000009 6.7093953790780709
decision_type=2 2 2 2 2 2 2 2 2 2 2 2 2 2 2 2 2 2 2 2 2 2 2 2 2 2 2 2 2 2
left_child=3 4 6 13 5 -2 7 8 -3 10 -9 12 -12 14 15 -1 -5 -8 -14 20 29 -19 -23 -24 25 -25 27 -27 -22 -11
right_child=1 2 -4 16 -6 -7 17 9 -10 19 11 -13 18 -15 -16 -17 -18 21 -20 -21 28 22 23 24 -26 26 -28 -29 -30 -31
leaf_value=-0.033127207644265723 -0.072612732047193526 0.12754935439149162 0.088692004226811422 -0.0074175519921330871 0.050214870494123667 0.0092667258059788756 -0.040870282280876913 0.26140776011398398 -0.056338638079153548 0.042861390548621453 -0.031625263984069028 0.019877732096415024 0.12751106644396049 -0.085222115865254008 -0.062088413105446418 0.15888021572218114 -0.065222973602343456 0.13181143461091807 0.044039662640712074 0.13861799099391256 -0.044803705101669089 -0.038387578635550187 0.1603240249448826 -0.12229432546423098 -0.077345088350657107 0.12904944140908883 0.14935790536752164 0.006122548719171836 0.078977765139786216 0.17516513158169567
leaf_weight=4.7511960193514806 29.103769861161709 4.4385152608156231 106.75755585730076 46.888578206300735 39.346066072583199 90.47512124478817 19.881481312215328 2.1612438112497321 16.902250856161118 5.2305691987276095 6.3567660003900519 70.59302593767643 25.661463871598244 214.16410241276026 40.68911349773407 3.8964774832129478 43.010469861328602 5.1472848504781714 17.197022259235382 23.241810068488121 6.9764316827058783 16.654389843344688 4.6278965324163428 4.1676781773567191 10.71460574865341 8.0061325728893262 11.049629449844359 24.309320226311684 8.1738312095403654 7.7013237923383713
leaf_count=39 207 19 443 313 177 465 115 10 93 23 28 311 105 2001 359 29 362 23 71 97 30 83 20 20 50 34 45 105 35 32
internal_value=-0.00141449 0.0392482 0.052887 -0.0664098 0.00441002 -0.0106615 0.0401111 0.0541447 -0.0180931 0.0630407 0.0475253 0.043667 0.0777897 -0.0771009 -0.0418479 0.0533877 -0.0350734 0.0139876 0.0940181 0.0999125 0.0678785 0.0268677 0.0200756 0.0355613 0.0256486 0.048865 0.0653146 0.0365776 0.0219786 0.121652
internal_weight=918.275 564.875 405.95 353.4 158.925 119.579 299.193 194.634 21.3408 173.293 121.97 119.808 49.2153 263.501 49.3368 8.64767 89.899 104.558 42.8585 51.324 28.0822 84.6769 79.5297 62.8753 58.2474 47.5328 43.3651 32.3155 15.1503 12.9319
internal_count=5744 2641 1792 3103 849 672 1349 854 112 742 525 515 204 2428 427 68 675 495 176 217 120 380 357 274 254 204 184 139 65 55
is_linear=0
shrinkage=0.1


Tree=10
num_leaves=31
num_cat=0
split_feature=0 0 3 2 1 1 2 3 1 4 1 0 1 0 1 0 4 3 0 1 4 4 3 3 3 2 4 3 1 1
split_gain=204.353 22.7098 12.7942 12.4207 11.9754 13.539 11.5598 9.97688 10.0166 8.782 8.36976 11.4766 8.9392 8.21812 8.15139 7.24485 10.6873 8.17623 6.92789 8.79166 6.09718 5.65903 7.12553 10.1711 8.59827 8.29354 5.52651 5.39687 7.81965 9.90855
threshold=0.82657830373090113 6.5472462443308315 3.5000000000000004 3.5000000000000004 0.025184340700000005 0.040631779250000007 4.5000000000000009 2.5000000000000004 0.010768739300000002 50.500000000000007 0.016078470050000005 1.2179025065152953 0.039143970500000007 1.3477101189765401 0.057514116150000009 36.973072436927303 42.500000000000007 2.5000000000000004 2.0206207261596556 0.006500845600000001 51.500000000000007 48.500000000000007 44.500000000000007 77.500000000000014 3.5000000000000004 2.5000000000000004 26.500000000000004 8.5000000000000018 0.015283770650000002 0.0014940810500000002
decision_type=2 2 2 2 2 2 2 2 2 2 2 2 2 2 2 2 2 2 2 2 2 2 2 2 2 2 2 2 2 2
left_child=4 2 9 -3 7 -6 -4 8 -1 18 11 -8 -12 -13 -14 17 -17 -5 19 -2 -16 22 24 -24 25 -7 -20 28 29 -19
right_child=1 3 6 15 5 21 10 -9 -10 -11 12 13 14 -15 20 16 -18 27 26 -21 -22 -23 23 -25 -26 -27 -28 -29 -30 -31
leaf_value=0.06625095970094684 -0.061608025694949331 0.022606972225832311 -0.015524223133161489 0.13369508645038281 0.18725474011548177 -0.058242985612079003 0.15090567165587832 -0.079846171329956167 -0.060131404092722489 -0.07091910139583206 0.16259327457177628 -0.11914041376565709 -0.066835826399287521 0.0065158842898425913 0.079800606311451028 0.078840227801073914 -0.076875968497106539 -0.010062824589569844 0.020782383611006119 0.10162364255978036 -0.033804368451522605 -0.086021549578240555 0.16777030539462667 -0.065427237361039906 -0.058202029755032338 0.11999621451546574 0.12963424549006711 0.077483548786149756 -0.0098006336850917555 0.15014592209094116
leaf_weight=9.5910312533378619 6.6994453817605955 79.710607081651688 119.69642941653728 21.2253208309412 2.8191143050789824 4.5540846809744817 5.1354230046272269 233.85375487059355 18.117275632917881 4.3480126410722724 7.3298972696065894 5.693089857697486 5.8286923170089713 60.683957472443581 28.657038703560829 9.760696008801462 8.0366983562707883 6.5191375464200965 5.9121690690517452 6.5019332617521286 5.6568246334791175 17.280994959175587 4.4183461964130393 3.2432639226317406 36.226993665099144 6.117078609764576 22.096799820661545 123.02009283006191 19.265112727880478 9.4658647924661619
leaf_count=60 37 352 669 90 18 32 26 2316 166 22 32 30 25 300 120 44 37 31 28 31 27 153 27 20 280 31 96 523 81 40
internal_value=-0.00138892 0.0355445 0.0156867 0.055921 -0.0630405 -0.0277161 0.00641757 -0.0731235 -0.0163851 0.0642478 0.0284906 0.00688128 0.0610428 -0.00426152 0.0425 0.0693806 0.00852409 0.0754147 0.078509 0.0187867 0.0610722 -0.0361518 -0.0203563 0.0690546 -0.034963 0.0439299 0.106658 0.0675988 0.033102 0.0848082
internal_weight=897.465 561.243 284.24 277.004 336.222 74.6599 238.681 261.562 27.7083 45.5584 118.985 71.5125 47.4725 66.377 40.1426 197.293 17.7974 179.496 41.2103 13.2014 34.3139 71.8408 54.5598 7.66161 46.8982 10.6712 28.009 158.27 35.2501 15.985
internal_count=5744 2641 1443 1198 3103 561 1229 2542 226 214 560 356 204 330 172 846 81 765 192 68 147 543 390 47 343 63 124 675 152 71
is_linear=0
shrinkage=0.1


Tree=11
num_leaves=31
num_cat=0
split_feature=0 0 2 2 1 1 1 4 4 4 1 3 2 0 3 4 3 0 3 3 4 4 1 1 4 3 3 3 4 0
split_gain=173.924 22.2574 12.9742 11.4165 10.185 9.70526 8.95267 8.5258 8.40215 11.229 8.31527 7.99979 8.50551 9.85112 7.49254 7.07119 6.57774 10.8787 6.11469 11.4963 5.91859 8.27142 5.76548 7.38635 6.02433 5.98356 5.69887 8.39044 6.69623 8.91038
threshold=0.53206016849974402 3.6810261985459651 5.5000000000000009 3.5000000000000004 0.018466975900000005 0.025184340700000005 0.014560098250000002 53.500000000000007 20.500000000000004 7.5000000000000009 0.0078598171000000012 16.500000000000004 4.5000000000000009 3.9433437343161057 10.500000000000002 47.500000000000007 5.5000000000000009 0.5081988897471611 4.5000000000000009 17.500000000000004 39.500000000000007 45.500000000000007 0.045822685950000004 0.074266617650000019 32.500000000000007 16.500000000000004 28.500000000000004 3.5000000000000004 42.500000000000007 10.530114798815552
decision_type=2 2 2 2 2 2 2 2 2 2 2 2 2 2 2 2 2 2 2 2 2 2 2 2 2 2 2 2 2 2
left_child=5 3 11 -2 6 8 10 22 9 -1 -5 12 13 -3 20 18 17 -10 -7 -20 -14 -22 -6 -24 25 -25 27 -4 -29 -30
right_child=1 2 26 4 7 15 -8 -9 16 -11 -12 -13 14 -15 -16 -17 -18 -19 19 -21 21 -23 23 24 -26 -27 -28 28 29 -31
leaf_value=-0.12371974336136844 -0.032518795149265776 0.23815048243991865 0.14168982163282121 0.010325266218471603 0.14700156170163833 0.058631724255781226 -0.047309704405364091 -0.064231356344018053 -0.058780606487940291 0.10641762470583074 0.15102676988434399 0.011233396259450508 0.10024771726261779 0.029581439979728064 0.13277112243703004 -0.084428700392515099 -0.085928239412268931 0.11070397093211365 -0.07792781160289701 0.033936869890834324 -0.090043200311295354 0.05994119506464736 -0.058660116348970594 0.077541882791149833 0.095849997629855091 -0.075648552473061625 0.10857042044447254 0.077417209265834952 -0.064674720522278281 0.058460358307490579
leaf_weight=3.3659326955676061 59.327886693179607 2.306194767355918 9.9320036619901639 67.357824891805649 7.7276422977447501 10.34344209730625 28.296393498778343 5.4378942400217047 45.385743290185928 5.7283244952559471 4.4796268045902243 96.819936573505402 14.063123270869257 125.46653226017952 18.392059504985809 17.059188395738602 174.69977179169655 4.1319787651300421 20.701922930777073 16.516531333327293 5.3741857856512096 11.642835736274717 5.1885495483875266 5.3553269654512388 24.769308194518089 4.8669745624065399 36.096473276615143 24.512166246771812 10.709109261631967 13.023313507437704
leaf_count=27 382 10 45 353 33 61 174 31 452 45 20 450 61 551 82 161 1883 29 173 114 24 52 23 23 106 21 155 104 44 55
internal_value=-0.00136632 0.0304817 0.045357 0.00473488 0.0191354 -0.0634889 0.000332925 0.054429 -0.0729876 0.02124 0.0190991 0.0343496 0.0469769 0.0333459 0.0821816 -0.0291943 -0.0768094 -0.0446381 -0.00938319 -0.0282853 0.0522447 0.0125743 0.0678978 0.0526842 0.0691943 0.00460587 0.0773569 0.0579901 0.040759 0.00289641
internal_weight=879.078 581.145 368.338 212.807 153.48 297.933 100.134 53.3457 233.312 9.09426 71.8375 274.065 177.245 127.773 49.4722 64.6211 224.217 49.5177 47.5619 37.2185 31.0801 17.017 47.9078 40.1802 34.9916 10.2223 94.2731 58.1766 48.2446 23.7324
internal_count=5744 2799 1633 1166 784 2945 547 237 2436 72 373 1230 780 561 219 509 2364 481 348 287 137 76 206 173 150 44 403 248 203 99
is_linear=0
shrinkage=0.1


Tree=12
num_leaves=31
num_cat=0
split_feature=0 0 2 4 1 1 0 0 3 1 3 2 1 2 4 3 3 4 4 1 3 3 0 0 3 3 4 2 4 0
split_gain=147.076 18.5406 12.3531 14.8392 8.98527 8.53391 7.84339 8.03119 7.8031 8.12935 7.70169 7.4772 6.59429 6.40273 6.30786 5.94894 5.44294 5.22169 5.16337 5.15023 5.40192 8.6389 4.76047 10.7233 10.6505 9.94953 6.9696 6.66745 6.24026 5.14949
threshold=0.53206016849974402 2.9068191008750803 2.5000000000000004 39.500000000000007 0.025184340700000005 0.23940491215000004 3.1963425179021354 4.0906316055112359 2.5000000000000004 0.010768739300000002 7.5000000000000009 3.5000000000000004 0.27632158020000003 5.5000000000000009 47.500000000000007 3.5000000000000004 1.5000000000000002 22.500000000000004 10.500000000000002 0.05310438080000001 3.5000000000000004 17.500000000000004 1.6380804171854753 2.0206207261596556 13.500000000000002 14.500000000000002 51.500000000000007 5.5000000000000009 42.500000000000007 1.1900526680445054
decision_type=2 2 2 2 2 2 2 2 2 2 2 2 2 2 2 2 2 2 2 2 2 2 2 2 2 2 2 2 2 2
left_child=4 11 5 15 8 10 -5 13 9 -1 -3 12 -2 -8 19 -4 -13 18 -10 -6 -21 -22 24 -24 29 28 27 -26 -25 -18
right_child=1 2 3 6 14 -7 7 -9 17 -11 -12 16 -14 -15 -16 -17 22 -19 -20 20 21 -23 23 25 26 -27 -28 -29 -30 -31
leaf_value=0.060686474730796226 -0.06039884752593494 0.03115644617391989 0.10569220882825808 0.15642004764757889 0.12251442915086658 0.0436928802915722 -0.078122845519116579 0.031609012944805275 -0.11346690371273478 -0.058909658987257973 -0.077226971806441169 0.1085744807547401 0.015774462935243243 0.040806992547534643 -0.081355628381040629 0.058729012017270904 0.026925559733136831 -0.079911022181132108 0.063791291106359602 0.052682913964090909 -0.079385655957278145 0.019912229446097919 0.10425541222655205 0.0051721421400498669 0.014696938425947735 -0.03364017350532203 -0.049097669397188626 0.12605930159957465 0.10860266438788629 -0.080065502774510605
leaf_weight=8.7056096345186251 30.969465389847755 9.8153323233127612 34.679194942116737 4.6210395395755759 2.8143100515007964 19.723455160856247 12.71780998259783 168.85789477080107 2.4488263949751845 16.372730158269405 19.74606154859066 5.7446789443492881 17.952999636530876 7.0283580422401419 15.989127628505228 121.37692601978779 5.6926084086298969 187.6082571670413 4.9958081617951393 8.8908814564347249 19.38764726370573 15.985542953014372 14.249040901660917 12.223379030823709 14.26679883152247 28.275589883327484 8.5611207708716375 8.6274549290537816 11.157893031835554 21.445825561881065
leaf_count=54 240 48 155 22 18 85 70 747 24 163 103 27 94 30 161 532 38 2152 43 50 171 109 68 56 81 143 53 42 53 112
internal_value=-0.00133233 0.0276057 0.0396166 0.0462297 -0.0603666 -0.00725057 0.0277061 0.0245524 -0.0699008 -0.0173935 -0.0412402 0.000886717 -0.0324456 -0.0357915 -0.0270886 0.0691653 0.013407 -0.0766517 0.00548426 -0.00865795 -0.0169979 -0.0345118 0.00901581 0.0274534 -0.0117227 0.00626833 0.0278782 0.0566627 0.0545307 -0.0576229
internal_weight=860.932 577.733 398.566 349.281 283.199 49.2848 193.225 188.604 220.131 25.0783 29.5614 179.167 48.9225 19.7462 63.0675 156.056 130.244 195.053 7.44463 47.0784 44.2641 35.3732 124.5 65.9059 58.5938 51.6569 31.4554 22.8943 23.3813 27.1384
internal_count=5744 2799 1792 1556 2945 236 869 847 2436 217 151 1007 334 100 509 687 673 2219 67 348 330 280 646 320 326 252 176 123 109 150
is_linear=0
shrinkage=0.1


Tree=13
num_leaves=31
num_cat=0
split_feature=0 0 3 2 3 1 0 4 4 2 0 0 1 1 1 0 1 3 3 3 4 1 3 3 2 1 4 3 3 2
split_gain=124.172 15.7691 14.5526 13.1711 9.1445 8.28348 7.70571 7.10137 8.54274 6.82242 7.22334 10.7913 7.57265 14.6717 10.5459 7.84167 9.83203 6.73647 7.71793 11.4098 8.51002 6.40754 7.84797 7.33163 7.41898 6.21116 5.64634 6.324 7.9222 7.02042
threshold=0.53206016849974402 9.0036755407228473 3.5000000000000004 3.5000000000000004 97.500000000000014 0.019069900650000002 1.2179025065152953 20.500000000000004 7.5000000000000009 7.5000000000000009 22.804898970681155 15.947831481571802 0.015602880850000002 0.015283770650000002 0.0023321866500000004 11.503622252883101 0.30068230650000005 208.50000000000003 76.500000000000014 51.500000000000007 49.500000000000007 0.014560098250000002 221.50000000000003 2.5000000000000004 3.5000000000000004 0.14635353175000002 48.500000000000007 4.5000000000000009 17.500000000000004 2.5000000000000004
decision_type=2 2 2 2 2 2 2 2 2 2 2 2 2 2 2 2 2 2 2 2 2 2 2 2 2 2 2 2 2 2
left_child=5 2 6 25 9 7 -2 8 -1 10 11 12 13 14 -3 -14 -17 18 19 -5 -20 23 -23 24 -9 -4 27 29 -29 -7
right_child=1 4 3 17 -6 26 -8 21 -10 -11 -12 -13 15 -15 -16 16 -18 -19 20 -21 -22 22 -24 -25 -26 -27 -28 28 -30 -31
leaf_value=-0.12160067583038765 -0.03675449818281399 -0.00036667008286223182 -0.052160972618940454 0.017066310709472496 0.11104065002488242 -0.048335007276686985 0.072732948919931303 0.15752546026046133 0.085326685405402627 0.1559346518096687 0.0049939698410352736 0.11577296802092485 0.10176591545468437 -0.077768139136763267 0.097232998829469577 0.1249728149978066 0.0077221960454858657 -0.075391750434654931 0.097555090867993854 -0.10271519058510191 -0.046002541331564228 -0.08617163561799851 0.094631274021724554 -0.057291778531114917 -0.03897979737915399 0.0079884862672727382 -0.082372484930742576 -0.073621343566472028 0.017825073429526054 0.11477986504049227
leaf_weight=2.935312978923319 7.4097828492522231 27.761856347322464 52.711906895041466 170.2491989210248 19.399032384157181 4.1459907963871938 48.520658977329731 3.4014903157949439 6.2284958809614182 4.8942733705043784 53.721421450376511 20.172162264585495 27.028067484498024 14.170638680458067 18.414339378476143 9.1034658849239332 33.358392313122749 7.8649658411741248 21.143729247152809 8.3420904800295812 5.1314815059304228 134.65822226554155 2.4443271979689589 52.37981640547514 4.4151863604784012 25.459353007376194 13.70820866525173 19.613500826060772 18.324449889361858 7.2574318870902061
leaf_count=27 41 125 363 828 85 31 231 21 45 22 235 88 116 62 80 39 143 41 101 45 29 1657 30 611 29 125 148 184 127 35
internal_value=-0.00131584 0.0249418 0.0115125 0.00253077 0.0453683 -0.0573221 0.0582278 -0.0670101 0.0190446 0.0392617 0.0364588 0.0477271 0.0371551 0.0112397 0.0385545 0.0596608 0.0328597 0.0154295 0.0189161 0.0114713 0.0695187 -0.0710071 -0.0829482 -0.0438101 0.0465311 -0.0325711 -0.0255974 -0.00982395 -0.0294517 0.0554755
internal_weight=844.369 574.857 346.833 290.903 228.024 269.512 55.9304 206.463 9.16381 208.625 203.73 150.009 129.837 60.3468 46.1762 69.4899 42.4619 212.731 204.867 178.591 26.2752 197.299 137.103 60.1965 7.81668 78.1713 63.0496 49.3414 37.938 11.4034
internal_count=5744 2799 1804 1532 995 2945 272 2420 72 910 888 653 565 267 205 298 182 1044 1003 873 130 2348 1687 661 50 488 525 377 311 66
is_linear=0
shrinkage=0.1


Tree=14
num_leaves=31
num_cat=0
split_feature=0 2 3 1 1 4 1 3 3 3 0 1 3 1 1 1 1 3 1 4 4 3 0 0 3 0 3 3 0 0
split_gain=104.988 13.8709 12.6372 10.0222 13.7086 9.91102 9.99683 9.8685 9.5219 8.13507 7.84966 7.58462 6.90139 6.75652 17.4587 10.9856 9.20213 6.72548 6.70442 6.54933 6.51199 8.41534 5.93103 5.7957 5.65576 8.86866 6.37281 6.15073 5.506 5.41163
threshold=0.53206016849974402 4.5000000000000009 192.50000000000003 0.033671453450000007 0.014560098250000002 30.500000000000004 0.00097921490000000004 79.000000000000014 1.5000000000000002 54.000000000000007 14.636137595138953 0.025184340700000005 2.5000000000000004 0.015602880850000002 0.015283770650000002 0.0014940810500000002 0.039143970500000007 29.500000000000004 0.00072457590000000007 28.500000000000004 44.500000000000007 36.500000000000007 6.5472462443308315 2.8664595934800405 6.5000000000000009 6.7093953790780709 14.500000000000002 17.500000000000004 1.0408022035793951 2.2546218468058954
decision_type=2 2 2 2 2 2 2 2 2 2 2 2 2 2 2 2 2 2 2 2 2 2 2 2 2 2 2 2 2 2
left_child=11 3 7 4 5 6 -2 8 -3 13 17 12 19 14 15 18 -15 -6 24 -1 21 28 -16 -7 -10 26 -26 -27 -5 -18
right_child=1 2 -4 20 10 23 -8 -9 9 -11 -12 -13 -14 16 22 -17 29 -19 -20 -21 -22 -23 -24 -25 25 27 -28 -29 -30 -31
leaf_value=0.069091476088428541 0.0021792234147958961 0.12020861097033603 -0.10639840158644612 -0.070293864266951153 -0.034484670378209785 -0.040041981809209273 0.13543887894245221 0.094675387989397564 0.10309625741606887 -0.048528184255864443 0.10334179876405113 -0.02328190075622872 -0.070854003117675313 0.12439655179484953 -0.027697353545444139 0.082667830997293801 -0.023566534943352091 -0.11196045394535514 -0.053341283533514541 -0.046683970489547193 -0.0010243550421718398 0.12326758373603447 -0.14206578302828962 0.015453577195897728 -0.10063440882441688 0.011660021564962576 0.015969114396015529 0.17136660012126981 0.039289773100028 0.051607028287506407
leaf_weight=6.8464648649096516 10.794275067746641 12.46702305972576 5.832248628139495 4.9020498096942893 40.328277952969074 28.100345060229301 11.765273138880728 31.769118368625641 8.4640587419271451 12.335169866681097 3.2724207043647757 60.03772009909153 172.83054892718792 15.841197609901426 19.718814074993137 35.53718064725399 11.192004069685934 15.515047550201414 12.522095739841459 17.064647935330868 49.378793880343437 11.716349035501478 5.888430416584014 56.973951384425163 7.4712053537368837 4.9681587219238263 12.578206062316893 4.6859537661075592 70.90353025496006 66.335405379533768
leaf_count=49 60 60 29 29 248 179 55 147 39 63 14 509 2219 70 106 161 50 112 59 168 230 51 24 271 39 22 64 20 303 294
internal_value=-0.00128312 0.02259 0.0391887 0.00796152 -0.00849984 0.0127493 0.0716769 0.0424324 0.0352164 0.0303455 -0.0471888 -0.0543935 -0.0638876 0.0350868 0.0185068 0.0400385 0.0549457 -0.0560099 0.0101523 -0.013534 0.028012 0.044394 -0.0539966 -0.0028768 0.0309834 0.0104347 -0.027482 0.0891791 0.0322034 0.0407548
internal_weight=828.036 571.257 267.606 303.65 166.75 107.634 22.5595 261.774 230.005 217.538 59.1157 256.779 196.742 205.203 111.834 86.2269 93.3686 55.8433 50.6897 23.9111 136.901 87.5219 25.6072 85.0743 38.1676 29.7035 20.0494 9.65411 75.8056 77.5274
internal_count=5744 2799 1247 1552 939 565 115 1218 1071 1011 374 2945 2436 948 534 404 414 360 243 217 613 383 130 450 184 145 103 42 332 344
is_linear=0
shrinkage=0.1


Tree=15
num_leaves=31
num_cat=0
split_feature=0 0 2 1 4 1 3 1 1 3 1 1 4 3 2 4 4 3 4 1 3 3 0 0 3 0 1 3 4 3
split_gain=88.9796 12.7723 9.23355 8.14509 7.06758 6.34622 6.06632 8.27102 9.48354 7.0306 6.88727 9.24804 6.48011 5.36647 5.11483 5.05031 5.10403 5.04788 4.84443 5.22308 4.67214 6.09662 4.88396 10.4224 6.49684 7.60412 6.44774 4.82836 4.60017 10.4648
threshold=0.42773094298191056 2.9068191008750803 5.5000000000000009 0.025184340700000005 22.500000000000004 0.014560098250000002 15.500000000000002 0.00039115820000000008 8.7310000000000016e-05 13.500000000000002 0.0095880836500000007 0.021075833150000004 27.500000000000004 2.5000000000000004 4.5000000000000009 47.500000000000007 40.500000000000007 221.50000000000003 53.500000000000007 0.051150035350000005 79.000000000000014 3.5000000000000004 24.908164476736903 13.084961787246952 11.500000000000002 4.0269874752696957 0.021914751200000002 28.500000000000004 48.500000000000007 14.500000000000002
decision_type=2 2 2 2 2 2 2 2 2 2 2 2 2 2 2 2 2 2 2 2 2 2 2 2 2 2 2 2 2 2
left_child=3 28 6 4 -1 13 7 8 -3 10 -9 15 -8 -6 -13 16 -12 -7 19 -5 21 -4 23 24 -23 -26 27 -27 -2 -30
right_child=1 2 20 18 5 17 12 9 -10 -11 11 14 -14 -15 -16 -17 -18 -19 -20 -21 -22 22 -24 -25 25 26 -28 -29 29 -31
leaf_value=0.019817427305453852 0.007864636387822364 0.10248082040353597 0.1239782257900704 0.12355922168959586 0.046278564071386204 -0.085043870287539861 0.068104463684395919 0.072736832879373894 -0.059949047191408845 0.092562109525999858 -0.022277854633321912 0.023440551431779297 -0.0067301837865879448 -0.052111333045813481 0.084072317241648764 0.034497501491733494 -0.13129338793033571 0.064957660210469031 -0.11041317374684922 -0.017829731544045071 0.098327226200957407 0.077323959213577348 -0.036427049770290092 0.14212181730481871 -0.11214812509197346 -0.061519980598694027 0.077925572747567881 0.054363769230853759 0.022087802054190794 -0.066920066351615015
leaf_weight=9.3070657253265363 142.82183390110731 4.5470824539661434 8.6563318967819196 2.7798379287123671 6.4258645176887503 115.51512829959393 13.157286942005156 31.540747538208961 17.158160969614983 21.859386369585991 13.206519603729253 62.830198764801025 95.985713787376881 40.373191639780998 17.870652735233307 8.5232988297939283 6.3644370436668387 2.2878921627998343 5.2828461602330199 43.464347556233406 21.023845642805099 16.691410273313522 8.4175213873386365 9.2987194210290891 5.0551998764276496 10.130202785134317 11.596402809023855 5.5737099200487128 24.167083129286766 29.132020011544228
leaf_count=80 845 19 46 18 44 1626 59 140 93 99 61 265 459 537 83 42 29 28 62 369 101 72 35 45 21 44 54 25 144 199
internal_value=-0.00123012 0.0193208 0.0298005 -0.0546146 -0.064961 -0.0697546 0.0209675 0.0320516 -0.0259212 0.0398097 0.0315927 0.0196646 0.0022912 -0.0386017 0.036867 -0.0297495 -0.0577295 -0.0821306 -0.0196941 -0.00933054 0.0566395 0.0450187 0.0347811 0.0450543 0.0266514 0.000510675 0.0213717 -0.02039 -0.00149131 -0.0265618
internal_weight=811.044 585.608 389.487 225.436 173.909 164.602 293.043 183.9 21.7052 162.195 140.336 108.795 109.143 46.7991 80.7009 28.0943 19.571 117.803 51.527 46.2442 96.4433 75.4195 66.7632 58.3456 49.0469 32.3555 27.3003 15.7039 196.121 53.2991
internal_count=5744 2980 1792 2764 2315 2235 1349 831 112 719 620 480 518 581 348 132 90 1654 449 387 443 342 296 261 216 144 123 69 1188 343
is_linear=0
shrinkage=0.1


Tree=16
num_leaves=31
num_cat=0
split_feature=0 3 2 0 3 1 3 0 4 3 3 0 3 4 4 0 0 3 0 3 3 1 3 4 0 0 3 0 3 3
split_gain=75.2581 10.8483 12.0092 7.92025 11.1183 7.49295 7.33588 7.55838 7.41248 6.86293 6.79973 9.26993 6.99987 6.69626 6.35368 6.05417 9.8259 9.09047 5.96188 6.41577 7.51642 5.72412 6.77847 4.95008 7.38926 5.21234 9.46444 9.40096 4.93464 4.60791
threshold=0.42773094298191056 264.50000000000006 4.5000000000000009 9.1660569339062921 100.00000000000001 0.025184340700000005 3.5000000000000004 2.0206207261596556 30.500000000000004 1.5000000000000002 79.000000000000014 2.9068191008750803 54.000000000000007 39.500000000000007 20.500000000000004 10.530114798815552 22.532926421320102 10.500000000000002 56.199719857357607 38.500000000000007 26.500000000000004 0.014560098250000002 221.50000000000003 26.500000000000004 6.5472462443308315 1.2179025065152953 18.500000000000004 1.6380804171854753 122.50000000000001 2.5000000000000004
decision_type=2 2 2 2 2 2 2 2 2 2 2 2 2 2 2 2 2 2 2 2 2 2 2 2 2 2 2 2 2 2
left_child=5 2 3 6 18 14 7 8 -2 -4 12 -12 13 23 -1 -15 -17 -18 19 20 -5 29 -23 24 -11 -25 27 -27 -8 -16
right_child=1 -3 9 4 -6 -7 28 -9 -10 10 11 -13 -14 15 21 16 17 -19 -20 -21 -22 22 -24 25 -26 26 -28 -29 -30 -31
leaf_value=0.023284811556074491 0.061855524820514853 -0.10845482232636144 0.10868994439666416 0.025337927377991256 0.14864787514785635 -0.018079597994112972 -0.012123608633262785 0.073864159918144642 -0.070665899005602509 -0.05918148566274805 -0.01850806034802301 0.10538733385279196 -0.047480067975809344 -0.0014639458967559528 0.040433007657220521 0.087876262945904685 -0.097986309044487213 0.063368781687584502 -0.083193609677754105 -0.040215628165800515 0.13828752935239463 -0.082723621150576965 0.080071249808985376 0.13777343833428263 0.073577428538561307 -0.061960016917984334 -0.0019926582278330203 0.09712541855237547 -0.091746816633641204 -0.049846842896811266
leaf_weight=8.2891669943928701 7.207058563828471 6.75390651077032 12.022438719868658 88.179059579968452 6.9590400308370581 50.749601945281029 146.98955147713423 20.505625188350677 10.186321787536142 9.0985570102930087 8.0644624978303892 24.044769540429115 12.56630267947912 80.613784238696098 6.608923226594924 22.846604451537132 7.0955900996923429 6.8741988688707352 5.4931183755397788 13.75392125546932 6.3135536611080161 107.92785844951868 2.6197901070117942 8.099915109574793 7.775234341621398 4.1397750675678244 21.012076795101166 36.167299166321754 8.2187204062938672 39.109596617519855
leaf_count=67 35 38 62 378 29 449 902 96 65 43 40 117 68 395 44 112 30 30 26 61 28 1632 30 42 37 24 95 169 58 542
internal_value=-0.00117132 0.0175436 0.0190256 0.00585141 0.0259464 -0.0516719 -0.00670862 0.0327344 -0.0157548 0.0349004 0.031329 0.0742701 0.0249541 0.0294221 -0.0620319 0.0138806 0.0474792 -0.0185873 0.018439 0.0235965 0.0328847 -0.0665575 -0.0788657 0.0505715 0.00199218 0.0623798 0.0524207 0.0807864 -0.0163399 -0.0367963
internal_weight=796.286 580.981 574.227 313.806 120.699 215.305 193.107 37.899 17.3934 260.421 248.399 32.1092 216.289 203.723 164.555 117.43 36.8164 13.9698 113.74 108.247 94.4926 156.266 110.548 86.2929 16.8738 69.4191 61.3192 40.3071 155.208 45.7185
internal_count=5744 2980 2942 1678 522 2764 1156 196 100 1264 1202 157 1045 977 2315 567 172 60 493 467 406 2248 1662 410 80 330 288 193 960 586
is_linear=0
shrinkage=0.1


Tree=17
num_leaves=31
num_cat=0
split_feature=0 3 2 1 0 3 3 3 2 3 3 1 1 1 3 3 0 3 1 3 4 3 1 4 4 3 3 1 0 0
split_gain=63.5335 9.07627 9.94529 6.89953 6.43389 9.08117 6.33003 9.7926 7.86147 6.69947 7.9828 6.19823 11.579 13.401 5.9223 5.87631 7.9728 5.73192 5.65534 5.63277 10.6485 6.85412 5.75148 5.51287 5.40661 5.34849 10.3737 5.13151 5.10212 7.58555
threshold=0.42773094298191056 264.50000000000006 4.5000000000000009 0.025184340700000005 9.1660569339062921 100.00000000000001 12.500000000000002 11.500000000000002 2.5000000000000004 8.5000000000000018 1.5000000000000002 0.00032724730000000007 0.00010609960000000002 0.00013045435000000002 1.5000000000000002 79.000000000000014 2.9068191008750803 54.000000000000007 0.23940491215000004 13.500000000000002 48.500000000000007 122.50000000000001 0.08282613770000001 39.500000000000007 44.500000000000007 33.500000000000007 18.500000000000004 0.00019624715000000003 1.2415253053016901 1.4887527249030652
decision_type=2 2 2 2 2 2 2 2 2 2 2 2 2 2 2 2 2 2 2 2 2 2 2 2 2 2 2 2 2 2
left_child=3 2 4 11 6 24 7 8 9 10 -2 12 -1 -14 -4 17 -17 23 -12 -8 21 22 -21 -16 -6 26 -24 -15 -25 -30
right_child=1 -3 14 -5 5 -7 19 -9 -10 -11 18 -13 13 27 15 16 -18 -19 -20 20 -22 -23 25 28 -26 -27 -28 -29 29 -31
leaf_value=-0.073364086840332604 -0.11068572282221112 -0.10146628228227124 0.10170133310827847 -0.016484538207565749 0.03205156195655591 0.13463128430095847 -0.098397063165669013 0.15631199780591187 0.02589036150287808 -0.12314202220983722 -0.012335976768724135 -0.067666723799601439 0.2254654794614469 -0.1085552344751135 0.046013039481537968 -0.016765628927970535 0.098994840197255768 -0.043353241685619597 0.11499221898535926 -0.0057409090371845503 -0.067791582845418849 -0.10537074844705437 0.090761020215927288 -0.055665438360890121 -0.014227780338372574 0.12706540764976412 -0.11050508409610518 0.063524970149350435 0.17240817397612046 0.014354855033826948
leaf_weight=13.644420087337496 5.9596187472343507 6.5101102218031874 11.586789757013319 50.128275081515312 75.662363052368164 6.9168996810913077 9.2353585660457593 4.4939662069082251 60.349809750914574 6.9054613932967177 12.363120399415495 131.8104709982872 3.518508665263651 3.1450795978307724 85.396482162177563 8.0150534808635729 23.088094890117645 12.395552508532999 4.859333060681819 36.212167456746101 27.499258130788803 4.9464711248874655 7.1108580678701419 10.014318540692328 37.882412984967232 7.6165444254875174 4.0023032575845718 3.8595601245760918 3.1281570047140113 103.68415221571922
leaf_count=192 33 38 62 449 329 29 44 23 325 51 89 1993 38 46 410 40 117 68 25 246 191 37 34 64 164 35 23 46 16 487
internal_value=-0.00111362 0.0159398 0.0172823 -0.0487587 0.00527992 0.0233879 -0.00610754 0.0122322 0.00507263 -0.0366837 -0.0109296 -0.0591309 -0.0125765 0.0662412 0.0318366 0.0285421 0.0691642 0.0226551 0.0235898 -0.0241262 -0.016277 0.00737721 0.017528 0.0267012 0.0166112 0.0625164 0.0182769 -0.013739 0.0125848 0.0189837
internal_weight=781.941 575.835 569.325 206.106 312.016 120.462 191.554 94.9313 90.4373 30.0875 23.1821 155.978 24.1676 10.5231 257.309 245.722 31.1031 214.619 17.2225 96.623 87.3876 59.8883 54.9419 202.223 113.545 18.7297 11.1132 7.00464 116.827 106.812
internal_count=5744 2980 2942 2764 1678 522 1156 546 523 198 147 2315 322 130 1264 1202 157 1045 114 610 566 375 338 977 493 92 57 92 567 503
is_linear=0
shrinkage=0.1


Tree=18
num_leaves=31
num_cat=0
split_feature=0 0 0 0 2 1 3 4 3 3 4 2 0 4 1 1 1 0 2 4 3 1 1 1 0 0 4 1 0 1
split_gain=53.6187 10.0898 10.3331 8.98698 7.98885 6.33736 7.16399 6.13115 8.41171 11.6376 9.51048 7.05359 6.89619 5.75725 5.69576 19.7959 9.47447 7.94179 7.54898 6.61629 5.69169 5.63249 11.5787 12.7551 9.66472 9.1838 7.88137 9.22801 7.37874 7.25712
threshold=1.0000000180025095e-35 1.6380804171854753 1.5756376586213452 1.3477101189765401 2.5000000000000004 0.23940491215000004 7.5000000000000009 48.500000000000007 3.5000000000000004 5.5000000000000009 37.500000000000007 3.5000000000000004 1.7747680340828651 36.500000000000007 0.0092580899000000022 0.0014008857000000002 0.00072457590000000007 9.0036755407228473 4.5000000000000009 53.500000000000007 5.5000000000000009 0.015602880850000002 0.014560098250000002 0.0020636332000000005 2.4117543852608554 3.0713540248939801 31.500000000000004 0.97992212215000019 11.682607611874003 0.00064063715000000005
decision_type=2 2 2 2 2 2 2 2 2 2 2 2 2 2 2 2 2 2 2 2 2 2 2 2 2 2 2 2 2 2
left_child=20 2 3 13 5 6 -3 8 -6 10 -10 -9 -11 -2 15 16 -13 19 -19 -16 -1 22 23 29 -23 -24 27 -26 -28 -14
right_child=1 4 -4 -5 7 -7 -8 11 9 12 -12 14 21 -15 17 -17 -18 18 -20 -21 -22 24 25 -25 26 -27 28 -29 -30 -31
leaf_value=-0.020364367397911223 0.015387332692742024 0.015987505714992124 -0.094674075172784825 0.080997871345030781 0.068620640184683404 0.027226584554632716 -0.077407709316333728 -0.052524749929119763 0.0078744835123114414 0.19459003808790484 -0.11853470728142353 0.026815517173293193 0.038637567403551731 -0.030382023366657046 -0.0055287987974568104 0.14901690228391382 -0.11743148753591875 -0.025409070874938645 0.082259369126963314 -0.10489811158058833 -0.062279060332656011 -0.053020182051076906 0.037706255092670803 0.090393789659808765 0.087098626718156186 -0.082750088977404268 0.10460040303658931 -0.031616555623957425 0.040445491109521794 -0.03757025152163062
leaf_weight=43.987306922674179 48.130953878164291 13.267918348312376 13.32948414236307 11.799880445003508 52.498022213578224 21.493619203567505 21.557629853487015 17.935967244207859 15.845616891980173 2.576681211590766 9.5320957452058774 22.839673995971683 27.686448886990547 64.06420511379838 18.732405334711078 12.490025147795675 5.6873197406530371 11.677234277129175 14.721694871783255 10.43206164985895 122.956772711128 9.0628940165042859 9.6287752091884631 26.060644745826721 10.140854403376581 18.471581518650055 35.847970351576805 18.480202987790108 35.862422838807106 22.774938605725765
leaf_count=529 333 75 86 59 251 93 134 96 73 11 44 114 135 574 90 58 27 50 71 55 1899 39 63 122 47 97 164 82 166 107
internal_value=-0.00108493 0.012808 -0.0110103 -0.00201644 0.0198374 -0.0154727 -0.0418258 0.0246998 0.0323352 0.0244627 -0.0396059 0.00506607 0.0319695 -0.0107473 0.0157613 0.0440259 -0.00194247 -0.00510375 0.0346336 -0.041073 -0.0512352 0.0300116 0.0134229 0.0335824 0.0458766 -0.0414749 0.0548099 0.0104459 0.0725165 0.00424239
internal_weight=769.573 602.629 137.325 123.995 465.305 56.3192 34.8255 408.986 294.469 241.971 25.3777 114.516 216.593 112.195 96.5804 41.017 28.527 55.5634 26.3989 29.1645 166.944 214.017 104.622 76.522 109.394 28.1004 100.331 28.6211 71.7104 50.4614
internal_count=5744 3316 1052 966 2264 302 209 1962 1401 1150 117 561 1033 907 465 199 141 266 121 145 2428 1022 524 364 498 160 459 129 330 242
is_linear=0
shrinkage=0.1


Tree=19
num_leaves=31
num_cat=0
split_feature=0 2 3 3 0 4 3 3 1 0 3 0 2 0 4 3 3 3 1 0 0 3 4 1 0 0 4 1 4 3
split_gain=45.2473 8.64619 8.32225 8.1362 7.13318 5.35646 4.94237 4.72533 5.58454 4.69673 6.79772 7.02177 5.98739 9.33799 9.13506 6.77063 10.113 5.43777 5.02443 4.84406 9.733 4.71923 4.59598 4.31672 4.90622 4.23507 4.47484 6.40433 7.68853 5.66434
threshold=1.0000000180025095e-35 4.5000000000000009 192.50000000000003 151.00000000000003 1.6380804171854753 13.500000000000002 3.5000000000000004 1.5000000000000002 0.0027214317000000001 9.1660569339062921 8.5000000000000018 37.92183396773941 3.5000000000000004 2.0206207261596556 42.500000000000007 21.500000000000004 6.5000000000000009 4.5000000000000009 0.0010233341500000001 6.4523814658613663 3.6810261985459651 14.500000000000002 44.500000000000007 0.015283770650000002 4.0269874752696957 1.5756376586213452 34.500000000000007 0.37081745145000006 39.500000000000007 48.500000000000007
decision_type=2 2 2 2 2 2 2 2 2 2 2 2 2 2 2 2 2 2 2 2 2 2 2 2 2 2 2 2 2 2
left_child=5 4 3 7 25 -1 -6 8 -3 12 17 22 18 -14 23 16 -16 -11 -8 20 -20 -18 -12 24 -15 26 29 -28 -29 -2
right_child=1 2 -4 -5 6 -7 9 -9 -10 10 11 -13 13 14 15 -17 21 -19 19 -21 -22 -23 -24 -25 -26 -27 27 28 -30 -31
leaf_value=0.061455741462041004 -0.0050129751165637233 -0.011363815710096134 -0.093244641748304338 0.16650375809295026 0.034892426726865815 -0.051308025755048038 -0.092650751855325453 0.02258795243560777 0.13994566147254026 0.039485551893024315 0.065824381015621852 -0.063893915005062793 0.16571365927704707 -0.058117172716228994 -0.061825013293290945 -0.036931286274295066 0.16544929580035433 -0.08526902236914688 -0.04275060594317559 -0.079051067256140917 0.071198913717551424 0.043204546055194318 0.010619928805326116 -0.09121626535843777 0.079041664308662385 -0.10717667643586698 -0.062982922621540635 0.12207518623005423 -0.028979651633381332 0.12237112911244707
leaf_weight=4.3296912312507621 25.011773452162746 3.6548352390527707 5.8141805529594413 4.157003939151763 58.119257733225822 155.62223126739264 12.024592511355875 244.61166707798839 7.3338872119784355 5.4022549092769614 36.542046204209328 6.8128643184900275 3.6746400743722907 6.401311859488489 4.0816439241170945 7.6660043671727172 8.1545196175575239 9.8905290067195875 20.086853802204132 10.303263977169989 11.958416908979414 5.1539534181356421 25.678639143705368 11.008919611573218 4.4009322226047516 5.756348453462123 32.03072964400053 4.6842146217823055 12.006070263683794 4.0569594651460639
leaf_count=40 173 17 35 22 265 2388 84 1272 46 24 157 33 16 34 18 49 37 44 132 53 63 26 110 57 20 45 325 25 99 35
internal_value=-0.00102605 0.0116391 0.0250784 0.0277268 0.000853252 -0.0482557 0.00938596 0.0254698 0.0896203 0.00155248 0.0191247 0.032488 -0.0125713 0.0122066 0.000170886 0.041362 0.0758756 -0.0411988 -0.0356034 -0.0194052 -0.000227768 0.118108 0.0430414 -0.0471484 -0.00223742 -0.0244101 -0.0182855 -0.0368115 0.0134147 0.0127653
internal_weight=756.43 596.478 265.572 259.757 330.907 159.952 247.361 255.6 10.9887 189.241 84.3263 69.0335 104.915 50.5419 46.8673 25.0561 17.3901 15.2928 54.3731 42.3485 32.0453 13.3085 62.2207 21.8112 10.8022 83.5461 77.7897 48.721 16.6903 29.0687
internal_count=5744 3316 1392 1357 1924 2428 1222 1335 63 957 368 300 589 257 241 130 81 68 332 248 195 63 267 111 54 702 657 449 124 208
is_linear=0
shrinkage=0.1


Tree=20
num_leaves=31
num_cat=0
split_feature=0 3 3 3 3 3 2 3 4 4 4 2 4 1 3 3 3 3 1 1 1 1 3 1 0 1 3 0 3 1
split_gain=38.0669 6.5874 6.24504 8.3226 9.50711 7.17333 5.31611 5.02843 5.00495 6.46127 5.10906 4.62943 4.62789 5.31399 4.72265 10.1848 4.47229 4.33139 4.86775 10.8052 9.57074 9.43045 7.20355 15.6993 5.44921 4.96963 9.88708 9.86126 4.77304 4.59162
threshold=0.53206016849974402 5.5000000000000009 264.50000000000006 160.00000000000003 129.00000000000003 107.00000000000001 4.5000000000000009 115.50000000000001 28.500000000000004 23.500000000000004 12.500000000000002 2.5000000000000004 20.500000000000004 0.025184340700000005 221.50000000000003 402.00000000000006 1.5000000000000002 79.000000000000014 0.015602880850000002 0.015283770650000002 0.0022000930500000004 0.039143970500000007 18.500000000000004 0.00046578755000000008 6.5472462443308315 0.00025681725000000004 14.500000000000002 10.630916973068901 85.000000000000014 0.84836956905000005
decision_type=2 2 2 2 2 2 2 2 2 2 2 2 2 2 2 2 2 2 2 2 2 2 2 2 2 2 2 2 2 2
left_child=1 8 3 4 5 6 -2 -7 9 10 -1 -11 -3 14 -14 -16 -8 18 19 20 22 -20 25 -24 -21 -18 27 -27 -19 -23
right_child=2 12 -4 -5 -6 7 16 -9 -10 11 -12 -13 13 -15 15 -17 17 28 21 24 -22 29 23 -25 -26 26 -28 -29 -30 -31
leaf_value=0.064472821764310226 0.0029270421419729975 0.038683196152280191 -0.090902791608912972 0.1074663843895337 -0.098630517388051564 0.16574913854822695 0.089313969680081193 0.028216943984111006 -0.026651373690350671 -0.0071983423855141795 -0.11550289842286238 0.14962046968985668 -0.068072841104111784 -0.019960857729391407 0.21343676004621392 -0.10906052306785421 -0.029454981026369877 0.12432149402785181 0.10588399453715136 -0.028074696214649461 0.072500577752157902 -0.023088458214171714 0.041780555857934477 -0.12791900587233174 -0.13660590997907837 -0.016340558331574221 0.17786838554955808 0.14298119859243752 0.0009933678127914626 0.03351890686790316
leaf_weight=2.853642337024211 277.79166902601719 5.8056394085288039 5.7378962263464919 9.3565053567290288 7.6115814894437781 5.1828932464122754 9.8724192380905134 5.4578952193260193 40.542298287153244 2.8049698546528798 3.5264978595077991 5.7240133583545685 101.25047427043319 37.282240457832813 1.8604157231748097 2.0675888247787952 11.572217315435408 8.027641683816908 15.233211144804953 22.713818065822128 25.304669260978699 18.868279561400414 10.46387253701687 11.38079773634672 5.8094225674867621 16.876525104045875 4.8688118010759345 5.0466399043798438 5.1522006690502158 59.563217364251614
leaf_count=18 1466 53 34 51 45 30 60 35 510 34 34 44 1829 369 26 28 60 42 73 127 123 89 52 54 24 80 22 25 25 282
internal_value=-0.00098491 -0.0378368 0.0128691 0.0139797 0.0123192 0.0139458 0.0122456 0.0952058 -0.00843275 0.0411091 -0.0350052 0.0980467 -0.0488339 -0.0524004 -0.0638992 0.0436834 0.0234636 0.0205204 0.0169929 0.0031186 0.0208963 0.0338848 -0.000791958 -0.0466308 -0.0501796 0.0253088 0.0489628 0.0203348 0.0761107 0.0199009
internal_weight=745.61 203.718 541.892 536.154 526.798 519.186 508.545 10.6408 55.4514 14.9091 6.38014 8.52898 148.266 142.461 105.178 3.928 230.754 220.881 207.701 114.037 85.5135 93.6647 60.2089 21.8447 28.5232 38.3642 26.792 21.9232 13.1798 78.4315
internal_count=5744 2945 2799 2765 2714 2669 2604 65 640 130 52 78 2305 2252 1883 54 1138 1078 1011 567 416 444 293 106 151 187 127 105 67 371
is_linear=0
shrinkage=0.1


Tree=21
num_leaves=31
num_cat=0
split_feature=0 0 3 4 4 2 2 4 3 1 1 4 3 2 1 0 1 0 0 0 0 0 0 3 0 3 3 1 1 2
split_gain=32.7113 6.63025 5.04675 6.20549 4.69061 6.03395 4.30823 4.16674 4.7183 4.59797 9.95673 4.20535 4.16561 4.64428 7.4245 3.87242 4.37499 3.78376 7.22678 7.64536 4.95469 4.02138 14.9394 3.99749 9.2347 4.85635 6.4858 5.56415 3.86419 5.39674
threshold=1.0000000180025095e-35 4.4590727557124508 4.5000000000000009 27.500000000000004 39.500000000000007 2.5000000000000004 2.5000000000000004 47.500000000000007 241.50000000000003 0.00013402195000000004 0.00010609960000000002 33.500000000000007 1.5000000000000002 2.5000000000000004 0.00044639445000000001 10.530114798815552 0.0022000930500000004 36.973072436927303 27.089872942573702 24.522025937435902 14.636137595138953 11.935937184602402 10.630916973068901 29.500000000000004 9.0036755407228473 13.500000000000002 8.5000000000000018 0.00081266195000000011 0.0010117603500000001 5.5000000000000009
decision_type=2 2 2 2 2 2 2 2 2 2 2 2 2 2 2 2 2 2 2 2 2 2 2 2 2 2 2 2 2 2
left_child=2 12 3 6 5 -3 -1 9 -9 10 11 -4 13 -2 -15 -7 -17 18 19 20 21 22 23 25 -25 26 27 -6 -23 -30
right_child=1 4 7 -5 17 15 -8 8 -10 -11 -12 -13 -14 14 -16 16 -18 -19 -20 -21 -22 28 -24 24 -26 -27 -28 -29 29 -31
leaf_value=-0.0069282864786925488 -0.051601478277415729 -0.010673854346831615 0.11300456230872423 -0.031943246977704946 0.070582072991247788 0.063554352732823435 0.14378646749770288 -0.090521789501193634 0.091106944522377484 -0.046854871903601707 0.29960679706266874 -0.10587400177389744 -0.005050571398428458 -0.038328765882859703 0.11851235127948778 -0.030395522214950239 0.037737603646281308 -0.053634192638150592 0.11421588443374142 -0.084146011989657016 0.053638273895181124 -0.093997628530909025 0.10261771056200147 -0.0047713621050342499 0.16157175729151593 -0.051994584145733241 0.069418066101158207 -0.050933571430386598 -0.035795619724589486 0.086260582906992095
leaf_weight=3.6951948329806319 3.9460224360227611 26.532315254211426 1.3646312505006783 26.904770482331514 4.8319783210754421 49.329465627670288 3.8967580944299698 32.341885607689619 1.4964423328638066 74.801452536135912 1.2268183678388593 2.460559967905283 254.64544081315398 4.3315625041723242 9.9541883766651136 11.15242327749729 60.829775482416153 9.3829159438610059 6.5927192270755759 8.6281832009553892 24.572983011603355 6.9137513637542751 15.836429357528685 13.252103835344316 4.4608730226755133 23.573022209107876 11.171101108193396 17.116366073489189 15.595934122800829 4.718512535095214
leaf_count=39 26 128 25 359 21 247 29 624 20 1267 18 47 1704 23 51 54 295 43 29 38 119 32 73 70 23 114 51 77 70 28
internal_value=-0.000931024 0.00966134 -0.0429155 -0.00941324 0.019558 0.0325241 0.0704298 -0.0530809 -0.0824896 -0.0406188 0.0517147 -0.0277894 -0.00174457 0.0444307 0.0709568 0.041972 0.0271815 0.00805494 0.0117355 0.00725144 0.0128032 0.00426115 0.0144243 -0.00434672 0.0371208 -0.0173028 0.0073893 -0.0241816 -0.0294225 -0.00744517
internal_weight=735.557 587.368 148.189 34.4967 314.491 147.844 7.59195 113.692 33.8383 79.8535 5.05201 3.82519 272.877 18.2318 14.2858 121.312 71.9822 166.647 157.264 150.671 142.043 117.47 90.2419 74.4054 17.713 56.6925 33.1194 21.9483 27.2282 20.3144
internal_count=5744 3316 2428 427 1512 724 68 2001 644 1357 90 72 1804 100 74 596 349 788 745 716 678 559 429 356 93 263 149 98 130 98
is_linear=0
shrinkage=0.1


Tree=22
num_leaves=31
num_cat=0
split_feature=0 2 3 0 0 0 0 0 0 0 2 0 0 1 1 0 3 1 4 1 1 1 1 3 1 0 1 3 1 1
split_gain=27.6112 5.87753 7.30485 6.45296 5.22035 5.02438 6.63221 7.86155 7.74863 5.47189 8.57069 7.86433 7.25607 4.81242 4.83113 6.29014 4.51915 4.39021 8.57597 6.58304 5.77626 4.87512 7.40517 7.75565 7.02592 6.06729 5.70524 5.60715 4.19495 11.0141
threshold=1.0000000180025095e-35 3.5000000000000004 264.50000000000006 6.528143074492001 6.0511692752664459 24.522025937435902 14.908604451876551 11.739534153093851 12.665566282800402 27.089872942573702 5.5000000000000009 36.973072436927303 42.418243085663455 0.030317790600000002 0.015283770650000002 9.5620772419588267 5.5000000000000009 0.018466975900000005 54.500000000000007 0.014560098250000002 0.028561249050000004 0.0032667741500000003 0.0027408486500000002 27.500000000000004 0.0013187031500000001 2.2546218468058954 0.00021715965000000003 15.500000000000002 0.00032724730000000007 8.0991250000000015e-05
decision_type=2 2 2 2 2 2 2 2 2 2 2 2 2 2 2 2 2 2 2 2 2 2 2 2 2 2 2 2 2 2
left_child=16 -2 3 4 17 6 7 13 -9 10 -7 -11 -13 14 15 -5 28 19 20 21 -19 22 23 24 27 26 -25 -3 29 -1
right_child=1 2 -4 5 -6 9 -8 8 -10 11 -12 12 -14 -15 -16 -17 -18 18 -20 -21 -22 -23 -24 25 -26 -27 -28 -29 -30 -31
leaf_value=-0.10740782662697015 -0.0063738306903550193 -0.0062092485793969259 -0.09775136110038371 0.10607932234820712 -0.056161640992176243 0.011990051275872295 0.087228807278904488 -0.047686700018957313 0.035651613572628631 0.10502261393812835 -0.16668470269626345 -0.08090954400791095 0.052026992700164115 0.084174105697267992 -0.018953649119748811 0.0037105217125731915 -0.051508690732961548 0.150077718665384 -0.086234764366599131 -0.037309494250203953 0.031135988563060164 0.056642131987076162 -0.12986024929353104 0.16945068430543336 0.058513416600396731 -0.0033147096031244001 0.012477332037210643 -0.084796604313545687 -0.025261600800914354 0.17466992728660732
leaf_weight=2.2480569668114176 178.17376438528299 36.185465138405561 5.6245517879724494 12.245130345225336 12.738172635436056 6.7024762332439405 24.859411589801311 20.381327331066132 24.650139510631561 8.1628097742795962 4.4785202890634537 8.2903303503990191 8.1349043697118741 27.394251957535744 13.45121982693672 11.773744374513624 102.20492307469249 4.3464511632919303 5.9870127141475669 36.63642593100667 67.35920013487339 19.807535834610462 4.0856708884239188 6.8041296377778071 12.378989413380621 7.2562254518270484 3.5096883922815323 12.119856044650076 34.674274701625109 3.6024263836443424
leaf_count=38 1122 209 41 58 63 30 132 100 119 38 20 40 41 144 63 58 1899 23 45 255 338 101 21 46 65 38 24 82 460 31
internal_value=-0.00087911 0.008764 0.0154177 0.01701 0.00605125 0.0317406 0.0405842 0.0300328 -0.00206747 -0.00157651 -0.0595777 0.0247985 -0.0150702 0.0523181 0.0290283 0.0558994 -0.0403041 0.00971206 0.0287455 -0.000943036 0.0383457 0.0121002 0.00138532 0.00823767 -0.00870192 0.0667445 0.116034 -0.0259269 -0.0120457 0.0662811
internal_weight=726.267 583.537 405.364 399.739 229.215 170.524 134.755 109.896 45.0315 35.769 11.181 24.588 16.4252 64.8643 37.4701 24.0189 142.73 216.477 77.6927 138.784 71.7057 102.148 82.34 78.2544 60.6843 17.57 10.3138 48.3053 40.5248 5.85048
internal_count=5744 3316 2194 2153 1310 843 674 542 219 169 50 119 81 323 179 116 2428 1247 406 841 361 586 485 464 356 108 70 291 529 69
is_linear=0
shrinkage=0.1


Tree=23
num_leaves=31
num_cat=0
split_feature=0 4 3 0 3 0 0 2 3 4 3 0 1 3 3 0 0 3 3 4 3 2 0 3 2 4 3 3 4 2
split_gain=23.9325 6.4629 7.48059 5.1865 5.5356 5.63066 6.55042 6.16891 5.58639 5.1522 5.07645 4.82986 9.82731 15.495 8.62644 6.22853 6.06977 4.7451 5.77672 9.22658 7.52384 5.97096 5.59427 5.49698 10.639 7.72913 10.988 14.1761 5.89785 6.08165
threshold=1.0408022035793951 46.500000000000007 272.00000000000006 1.1900526680445054 3.5000000000000004 9.1660569339062921 8.9740335493944769 2.5000000000000004 6.5000000000000009 51.500000000000007 13.500000000000002 11.739534153093851 0.030317790600000002 27.500000000000004 15.500000000000002 12.665566282800402 22.804898970681155 118.00000000000001 31.500000000000004 37.500000000000007 38.500000000000007 6.5000000000000009 0.53206016849974402 9.5000000000000018 5.5000000000000009 43.500000000000007 20.500000000000004 11.500000000000002 35.500000000000007 1.5000000000000002
decision_type=2 2 2 2 2 2 2 2 2 2 2 2 2 2 2 2 2 2 2 2 2 2 2 2 2 2 2 2 2 2
left_child=1 17 10 -2 9 6 7 8 -6 -5 -3 12 13 14 -7 -13 -17 18 21 22 -21 23 -20 24 28 -25 27 -27 29 -1
right_child=3 2 -4 4 5 11 -8 -9 -10 -11 -12 15 -14 -15 -16 16 -18 -19 19 20 -22 -23 -24 25 -26 26 -28 -29 -30 -31
leaf_value=-0.063975309601664171 0.10123563333505536 -0.032155597311479302 0.17004142011488513 0.040792042052130308 0.033586329952806769 0.03855365227456025 -0.13060526195124161 0.0032738054641751127 -0.072433853591712519 -0.035663610183326373 -0.090227283555847873 -0.034516461358881062 0.10232107132359701 0.14379951813089753 -0.10665040213527721 0.043578561963941581 -0.0077679920948448668 -0.0870979859190808 -0.039954345075933824 0.32668180444526151 0.071902364040544745 0.14006362807716796 0.081699067562041566 -0.068482694070626057 0.20132041756721178 0.27759053197759764 0.2746221933400867 -0.090910145003514284 -0.052497453993781799 0.035745012167431957
leaf_weight=8.018967639654873 6.3002715632319441 29.744166444987059 1.4278614968061436 80.080519780516624 6.5272031947970417 7.1406388133764329 4.0528016835451117 215.11326708644629 20.831952311098576 9.9040917977690679 30.477872647345066 25.488645449280739 18.82573825865984 5.9039842188358298 9.5812508761882764 52.914506033062935 40.753697007894516 9.276419732719658 15.70537349581719 1.3685256764292697 7.5731462351977825 2.1863846741616717 4.9781947433948508 42.191522311419249 2.3671989217400542 1.2976167388260345 1.5790554732084272 5.340271782130003 24.326324004679918 25.769038733094931
leaf_count=102 33 477 18 404 42 32 21 1130 152 48 587 121 97 29 44 261 190 160 207 18 122 17 28 633 20 22 34 83 342 270
internal_value=-0.00082724 -0.0288723 -0.0561815 0.0110738 0.00993112 0.00497013 -0.00452202 -0.0024146 -0.0471401 0.032377 -0.0615452 0.0195401 0.0489417 0.00452772 -0.0446449 0.00931198 0.0212384 -0.0177943 -0.0132891 0.0260189 0.110896 -0.0235876 -0.0106744 -0.0268142 -0.00648803 -0.0512022 0.0375279 -0.0188733 -0.0149528 0.0120782
internal_weight=717.047 213.628 61.6499 503.419 497.118 407.134 246.525 242.472 27.3592 89.9846 60.222 160.608 41.4516 22.6259 16.7219 119.157 93.6682 151.978 142.702 29.6252 8.94167 113.076 20.6836 110.89 60.4815 50.4085 8.21694 6.63789 58.1143 33.788
internal_count=5744 3140 1082 2604 2571 2119 1345 1324 194 452 1064 774 202 105 76 572 451 2058 1898 375 140 1523 235 1506 734 772 139 105 714 372
is_linear=0
shrinkage=0.1


Tree=24
num_leaves=31
num_cat=0
split_feature=0 1 1 1 3 4 3 3 3 3 1 3 3 3 0 1 1 2 4 3 3 1 1 3 1 1 3 4 2 0
split_gain=20.495 6.40981 8.18932 10.7244 5.72345 7.34414 7.05191 4.09962 4.07092 5.11192 6.63369 6.31554 5.39121 4.53445 4.76058 6.21127 4.17766 4.02829 6.39861 4.91572 8.57976 5.46025 5.41244 5.93355 5.27186 14.313 4.83581 4.70037 6.14937 4.7766
threshold=1.6380804171854753 0.018466975900000005 0.014560098250000002 0.010072052600000001 33.500000000000007 51.500000000000007 95.000000000000014 221.50000000000003 2.5000000000000004 15.500000000000002 0.00046578755000000008 27.500000000000004 35.500000000000007 192.50000000000003 0.78463461681840363 0.00011391155000000001 0.00094644775000000015 2.5000000000000004 52.500000000000007 18.500000000000004 26.500000000000004 0.0022000930500000004 0.014560098250000002 69.500000000000014 8.8462450000000012e-05 0.00025681725000000004 22.500000000000004 41.500000000000007 5.5000000000000009 6.123724356957946
decision_type=2 2 2 2 2 2 2 2 2 2 2 2 2 2 2 2 2 2 2 2 2 2 2 2 2 2 2 2 2 2
left_child=1 2 3 8 -3 6 -6 -4 16 -10 11 -11 -12 14 15 -13 -1 18 -2 24 21 26 -22 -24 -19 -26 -21 29 -29 -25
right_child=17 4 7 -5 5 -7 -8 -9 9 10 12 13 -14 -15 -16 -17 -18 19 -20 20 22 -23 23 27 25 -27 -28 28 -30 -31
leaf_value=-0.0027257845768229151 -0.023733047296831029 -0.014909996381833993 -0.055714580868974177 0.19381975591084255 0.10603020277525442 -0.11020839860538918 -0.035809370072813311 0.066831617721945943 -0.053513656192923267 -0.045886285964182677 0.0060740899323490916 -0.10886301103287102 -0.11872425550342879 -0.059969439682671002 0.17952380031446952 0.11062375588534522 0.12197450468322966 0.11022033522542868 0.09896429171981326 -0.048308353819118521 0.047972772595674895 -0.011783247490458079 -0.034032722937001297 0.1386251606525529 -0.066081812030438489 0.028249303936298643 -0.17533872077783708 -0.044081320848742889 0.073552672130167945 0.022533372518807833
leaf_weight=8.6227928400039655 49.599635191261768 62.177081525325775 98.237881436944008 2.5097133405506602 13.279917664825922 2.6323980130255213 4.762146618217229 2.8079091534018508 33.503024969249964 5.8190531618893173 7.6794117428362352 1.8151658028364162 6.3023518100380898 1.9793056622147549 4.7824898511171341 4.4507146514952183 3.9024332463741294 6.908784255385398 4.6486050188541403 8.7222036272287351 34.255168586969376 23.556147538125515 29.696776807308197 5.9816625937819472 17.29387941211462 230.10923987627029 4.5653387159109107 13.276842229068281 6.6796706691384307 8.6975435763597471
leaf_count=53 275 540 1856 21 84 39 32 33 404 90 92 29 80 27 25 51 24 31 27 49 178 123 152 32 90 1114 22 77 42 52
internal_value=-0.000827202 -0.0228195 -0.0332958 -0.00968374 0.000245867 0.0458261 0.0685921 -0.0523092 -0.0161605 -0.0260337 0.00201081 0.040729 -0.0501794 0.0794173 0.104388 0.0470405 0.0361266 0.0123121 -0.0132189 0.0158658 0.000476184 -0.0406964 0.015863 -0.00123455 0.0240614 0.0216554 -0.0919535 0.0268867 -0.00470789 0.0698399
internal_weight=709.255 265.264 182.412 81.3665 82.8515 20.6745 18.0421 101.046 78.8567 66.3315 32.8285 18.8467 13.9818 13.0277 11.0484 6.26588 12.5252 443.991 54.2482 389.743 135.431 36.8437 98.5877 64.3325 254.312 247.403 13.2875 34.6357 19.9565 14.6792
internal_count=5744 3480 2785 896 695 155 116 1889 875 798 394 222 172 132 105 80 77 2264 302 1962 727 194 533 355 1235 1204 71 203 119 84
is_linear=0
shrinkage=0.1


Tree=25
num_leaves=31
num_cat=0
split_feature=0 0 0 2 3 4 1 1 2 4 1 1 3 3 1 3 0 1 0 4 3 3 0 3 4 2 3 3 0 3
split_gain=17.0102 5.88233 8.95878 4.57606 5.08932 5.91648 4.30721 3.70945 6.51447 5.90663 5.35915 8.32094 5.321 4.56211 4.43472 9.68685 4.32309 4.35701 5.41906 6.72954 4.05399 3.71444 6.82805 3.62383 5.76313 4.62495 6.6382 8.86904 12.3478 9.61497
threshold=1.6380804171854753 1.5756376586213452 1.3477101189765401 1.5000000000000002 2.5000000000000004 30.500000000000004 0.012840057900000002 0.021620524750000005 5.5000000000000009 19.500000000000004 0.014560098250000002 0.010072052600000001 10.500000000000002 11.500000000000002 0.00046578755000000008 27.500000000000004 0.78463461681840363 6.9909150000000008e-05 0.5081988897471611 41.500000000000007 221.50000000000003 23.500000000000004 0.5081988897471611 3.5000000000000004 51.500000000000007 3.5000000000000004 5.5000000000000009 18.500000000000004 2.6139401035430905 28.500000000000004
decision_type=2 2 2 2 2 2 2 2 2 2 2 2 2 2 2 2 2 2 2 2 2 2 2 2 2 2 2 2 2 2
left_child=1 2 3 -1 5 -5 -4 9 -9 -6 11 12 -11 -14 15 -15 17 -17 19 -19 -12 22 -16 24 -2 -25 -27 28 -28 -29
right_child=23 -3 6 4 7 -7 -8 8 -10 10 20 -13 13 14 21 16 -18 18 -20 -21 -22 -23 -24 25 -26 26 27 29 -30 -31
leaf_value=-0.070850232892154599 0.040154019032509237 -0.089155859890174993 -0.0054232436907346148 0.093287777202248012 0.099224021944424118 -0.0078412325826892858 0.11927238646647823 -0.018356370274943634 0.068864830910945377 -0.063626812623037141 -0.060310590138001899 0.18757650616931298 0.1406479076438116 -0.063934034061685061 -0.10581524165291367 -0.10624926083738595 0.15159454716807058 0.020651676864181095 -0.065011802279639069 0.2825447373849172 0.060522247993177791 -0.10169089575985935 0.11213845422449548 -0.012243908835458478 -0.045387246710108839 -0.032073198988591366 0.11647479653452696 -0.048016819724968754 0.024878634314052503 0.016770229783887074
leaf_weight=17.735172189772129 70.086071491241455 12.120119154453276 4.6737764552235586 8.1915689148008841 3.2754691503942004 19.692522548139095 6.8008752912282944 49.605622604489326 10.349818482995031 19.238141562789679 67.100949976593256 1.976976305246352 2.2139892838895312 8.0870793573558348 2.7951509654521924 1.7922125495970229 4.7548778206110001 2.1739042773842816 1.9434589222073553 1.7882490716874597 2.8964507654309264 7.144393265247345 2.9589870385825634 93.619813270866871 8.8731639236211759 28.505185827612877 16.994684845209122 31.759940020740032 109.83995116502047 82.181160606443882
leaf_count=290 355 86 27 47 32 198 32 478 63 265 1454 17 28 123 57 34 24 21 19 27 32 99 27 514 43 134 76 163 534 445
internal_value=-0.000805572 -0.0211374 -0.0178023 -0.0220027 -0.0180284 0.0218677 0.0684822 -0.0238805 -0.0032998 -0.033362 -0.0367852 -0.0139825 -0.021242 0.00162906 -0.00757553 0.0212836 0.0766259 0.0303184 0.0717635 0.138853 -0.0553106 -0.0535311 0.00626448 0.0111264 0.0305412 0.00690211 0.0135585 0.0189608 0.0371517 -0.00128851
internal_weight=701.17 259.31 247.19 235.715 217.98 27.8841 11.4747 190.096 59.9554 130.14 126.865 56.8674 54.8904 35.6523 33.4383 20.5398 12.4527 7.69782 5.90561 3.96215 69.9974 12.8985 5.75414 441.86 78.9592 362.901 269.281 240.776 126.835 113.941
internal_count=5744 3480 3394 3335 3045 245 59 2800 541 2259 2227 741 724 459 431 248 125 101 67 48 1486 183 84 2264 398 1866 1352 1218 610 608
is_linear=0
shrinkage=0.1


Tree=26
num_leaves=31
num_cat=0
split_feature=0 0 0 2 3 4 4 3 0 1 0 3 3 3 1 2 4 4 1 2 4 1 1 0 4 3 0 1 0 0
split_gain=14.1721 5.10804 7.35359 4.04999 4.24673 4.67482 3.72163 3.88879 3.90519 3.61844 3.61566 3.5934 5.95272 4.0525 3.89923 6.66503 11.3547 4.90392 4.45151 3.0386 5.22624 3.90969 5.01997 6.15868 3.53867 4.75084 8.52333 8.76119 4.55762 5.20783
threshold=1.6380804171854753 1.5756376586213452 1.3477101189765401 1.5000000000000002 2.5000000000000004 30.500000000000004 48.500000000000007 272.00000000000006 1.0408022035793951 0.0021364145000000007 1.4887527249030652 118.00000000000001 31.500000000000004 35.500000000000007 0.021620524750000005 2.5000000000000004 40.500000000000007 26.500000000000004 0.00026332620000000005 2.5000000000000004 52.500000000000007 0.23940491215000004 0.016280109650000003 12.313947540202403 48.500000000000007 15.500000000000002 4.776653654357701 0.00072457590000000007 1.8483732658861252 2.4663835735375357
decision_type=2 2 2 2 2 2 2 2 2 2 2 2 2 2 2 2 2 2 2 2 2 2 2 2 2 2 2 2 2 2
left_child=1 2 3 -1 5 -5 11 8 -8 -10 -4 12 -6 -14 15 16 17 -15 -17 20 21 22 23 -2 28 -26 -27 -28 -21 -30
right_child=19 -3 10 4 6 -7 7 -9 9 -11 -12 -13 13 14 -16 18 -18 -19 -20 24 -22 -23 -24 -25 25 26 27 -29 29 -31
leaf_value=-0.067833310357457682 -0.045732405906254624 -0.084734948917469299 0.11049072462288677 0.082251716685450935 -0.022545714666578159 -0.0070936963263063917 -0.068710430048413526 0.091854001011352882 0.081766356997623024 -0.040824850045382832 -0.0027165410405403639 -0.076044257607452981 0.11439477903826108 0.16520306046082403 0.058728946481989369 0.063547880889061589 0.39001306350142367 -0.10585585186169294 -0.075032500019931947 0.10793542992808536 0.087533480725901613 0.01373670564565093 -0.14076901278920304 0.10129446868572969 0.0175958602057282 -0.083734277223951825 0.11631672671732196 -0.018655127496427861 -0.020398842850924571 0.022346343855806746
leaf_weight=16.724740449339151 22.390404552221305 11.509405538439749 6.5212131887674314 8.3523085638880747 95.352807689458132 19.596278216689825 34.623261794447899 1.9512015692889679 3.614294618368147 7.2121896222233772 4.972433865070343 8.7204602360725385 4.5144079364836207 1.0853486470878158 11.334815293550493 2.9028035216033432 1.0049228630959985 1.7334471270442007 11.504657961428165 5.6598913446068755 4.7881543412804595 18.920799657702446 4.5714578032493582 3.2643806338310233 57.349971614778042 16.404703378677368 5.7639775574207297 29.034533947706223 32.341310873627663 240.124183408916
leaf_count=290 150 86 32 47 1400 198 735 20 21 46 27 158 39 15 70 26 21 39 210 28 27 83 28 14 279 106 28 148 164 1209
internal_value=-0.000795092 -0.0196471 -0.016548 -0.0204451 -0.0167329 0.0196068 -0.0222065 -0.0463844 -0.0523191 0.000100785 0.0615145 -0.0139109 -0.00972476 0.0261467 0.0126722 -0.0159625 0.101404 -0.00148737 -0.0471114 0.0100396 -0.0121959 -0.0219121 -0.0442272 -0.0270243 0.0131411 -0.00217138 -0.0243116 0.00370142 0.0191175 0.0172725
internal_weight=693.845 253.231 241.722 230.228 213.503 27.9486 185.555 47.4009 45.4497 10.8265 11.4936 138.154 129.433 34.0804 29.566 18.2312 3.82372 2.8188 14.4075 440.614 53.9352 49.147 30.2262 25.6548 386.679 108.553 51.2032 34.7985 278.125 272.465
internal_count=5744 3480 3394 3335 3045 245 2800 822 802 67 59 1978 1820 420 381 311 75 54 236 2264 302 275 192 164 1962 561 282 176 1401 1373
is_linear=0
shrinkage=0.1


Tree=27
num_leaves=31
num_cat=0
split_feature=0 2 3 3 1 0 0 0 3 0 1 1 0 1 1 3 3 0 4 3 3 4 1 3 3 3 3 3 4 1
split_gain=12.0389 4.16094 5.25397 5.56269 4.85091 4.14515 4.87472 8.0594 4.03788 3.71188 3.95594 6.08804 5.44749 5.30275 9.89357 3.88564 7.22416 4.5412 5.56019 3.82652 3.68031 4.13163 6.59451 5.03943 8.02138 4.95015 3.76092 4.36424 7.716 3.66187
threshold=1.0000000180025095e-35 4.5000000000000009 192.50000000000003 151.00000000000003 1.2295150000000002e-05 39.05978315495566 24.522025937435902 14.908604451876551 115.50000000000001 56.199719857357607 0.033671453450000007 0.024349137400000002 2.8664595934800405 0.0095880836500000007 0.0063357947000000012 57.500000000000007 25.500000000000004 4.0041298840401609 35.500000000000007 13.500000000000002 1.0000000180025095e-35 48.500000000000007 0.72608511330000014 15.500000000000002 10.500000000000002 93.500000000000014 69.500000000000014 3.5000000000000004 25.500000000000004 0.00013045435000000002
decision_type=2 2 2 2 2 2 2 2 2 2 2 2 2 2 2 2 2 2 2 2 2 2 2 2 2 2 2 2 2 2
left_child=29 4 3 5 -2 6 7 8 -3 10 11 12 -6 14 15 16 17 -14 19 -19 -12 26 -23 24 -24 -25 27 28 -22 -1
right_child=1 2 -4 -5 9 -7 -8 -9 -10 -11 20 -13 13 -15 -16 -17 -18 18 -20 -21 21 22 23 25 -26 -27 -28 -29 -30 -31
leaf_value=0.032019643453736223 -0.12411600384494897 0.014706696267039826 -0.083518830994860835 0.14307837548329699 -0.028641378947023396 0.11425861358875888 -0.040543356067258583 0.090122827473610001 -0.073895946945662719 -0.0833664419426495 -0.065778529733829597 -0.1392828193458977 0.11093709969981627 -0.022889253952717903 0.15366348791003437 -0.06027110472457356 0.15267961565357696 0.013692840574312743 -0.025272902271368233 0.12036575640242596 -0.042793598301720213 0.063711657932198976 -0.054128098833013318 -0.12309394413473745 0.11934164091565128 0.017057089058332937 0.078166318912377838 0.0045612148434557133 0.083577241649300249 -0.034050623879315178
leaf_weight=9.0573587864637357 3.2315137535333625 200.31144712492824 5.2892817072570315 3.4620037898421279 68.291438993066549 4.1681804060935965 15.501403287053106 14.279798790812491 5.2790736779570571 5.3724670559167853 5.6841212064027777 3.5546791702508918 4.1820796504616728 34.967853866517544 5.5145971029996863 6.364459201693534 3.9384940043091765 9.6266791149973852 27.089329332113266 5.1680396497249594 6.3637446761131313 8.0663520731031877 7.6126120761036891 9.1423003487288934 4.1020025461912155 3.4792250841855994 12.32321187853813 61.452598616480827 20.069437608122826 113.61404441669583
leaf_count=163 38 1115 35 22 635 23 75 90 32 26 25 24 20 190 25 32 18 49 136 25 28 43 43 56 22 24 57 306 102 2265
internal_value=-0.000781482 0.00539483 0.0150795 0.0172256 -0.00222444 0.0154067 0.0136562 0.0174774 0.0124316 -0.000963434 0.000478641 -0.00979939 -0.00701228 0.00823872 0.0258278 0.0133216 0.0226883 0.0115745 0.00165327 0.0509555 0.0130161 0.0163935 -0.0146474 -0.04062 0.00661426 -0.0844602 0.0264306 0.0191762 0.0531537 -0.0291724
internal_weight=686.56 563.888 248.291 243.002 315.597 239.54 235.372 219.87 205.591 312.366 306.993 168.698 165.143 96.8515 61.8837 56.3691 50.0046 46.0661 41.884 14.7947 138.296 132.611 32.4025 24.3361 11.7146 12.6215 100.209 87.8858 26.4332 122.671
internal_count=5744 3316 1392 1357 1924 1335 1312 1237 1147 1886 1860 1154 1130 495 305 280 248 230 210 74 706 681 188 145 65 80 493 436 130 2428
is_linear=0
shrinkage=0.1


Tree=28
num_leaves=31
num_cat=0
split_feature=0 3 4 4 3 3 3 4 4 3 1 4 3 4 1 1 1 1 1 0 0 2 4 4 2 3 0 0 1 3
split_gain=9.99982 3.62644 4.42813 3.89917 5.33834 3.81312 15.5317 3.74851 6.63798 4.16144 3.81768 5.40083 8.71421 3.64198 3.61186 7.89334 7.77781 4.95619 10.3587 8.99752 9.41835 8.25138 6.57753 7.92788 9.33611 6.27257 5.72192 5.70354 8.51068 6.42462
threshold=1.0000000180025095e-35 4.5000000000000009 27.500000000000004 47.500000000000007 272.00000000000006 95.000000000000014 75.000000000000014 19.500000000000004 11.500000000000002 16.500000000000004 0.97992212215000019 39.500000000000007 19.500000000000004 41.500000000000007 0.0010117603500000001 0.00078386485000000018 0.0011235701000000002 0.010768739300000002 0.015602880850000002 2.9804593428508506 1.1900526680445054 4.5000000000000009 31.500000000000004 45.500000000000007 3.5000000000000004 3.5000000000000004 15.397505589641051 1.3477101189765401 0.0020636332000000005 18.500000000000004
decision_type=2 2 2 2 2 2 2 2 2 2 2 2 2 2 2 2 2 2 2 2 2 2 2 2 2 2 2 2 2 2
left_child=1 2 -1 5 -5 6 7 8 -3 -9 11 12 -11 -4 15 -2 -16 19 26 20 21 25 -21 -24 -25 -18 -19 -22 -29 -30
right_child=14 3 13 4 -6 -7 -8 9 -10 10 -12 -13 -14 -15 16 -17 17 18 -20 22 27 -23 23 24 -26 -27 -28 28 29 -31
leaf_value=0.07070533686528449 -0.0019676830188887838 -0.05788010318278184 -0.06882713786559827 -0.082298463105406713 0.13348401909627952 -0.092874377763902088 0.36795971218313039 -0.058779139823021499 0.20806686944434205 0.22942596039363494 0.06309112963516951 0.032482674002807653 -0.095282817957031432 0.012608298504185354 0.15002785599321655 -0.087752716309409784 0.17839588713478469 -0.031088613568862323 0.012886612527428142 0.12021698610106635 -0.13844264802903958 0.23797284855030468 -0.012722545383938293 -0.042492639999799992 0.12892518464936681 -0.043013132936476503 0.10544390522233507 -0.10474179542458731 0.084140413841268427 -0.055964343538239883
leaf_weight=7.3027569912374046 111.2270200997591 1.8967794515192502 8.8972471579909342 22.901759460568432 1.2069202065467823 7.2310577854514113 1.0354726687073696 25.511061634868383 1.8577282950282095 0.89668455719948426 6.6774270683526984 9.3758284188806993 10.558498475700615 14.347798164933918 3.8843409195542327 11.870738770812748 1.7970795147120933 87.687662087380886 261.34909146279097 12.753431811928747 4.7041130959987667 2.429542750120163 16.765693672001362 4.2802217751741436 12.329997621476648 4.4430467039346695 3.1808612421154967 7.1926769018173244 8.3911301866173726 5.3659692108631125
leaf_count=68 721 25 139 633 11 164 13 562 17 22 62 214 278 220 21 72 10 633 1391 73 25 19 80 20 68 58 16 43 39 27
internal_value=-0.000722448 -0.0269566 0.00277837 -0.0371456 -0.071496 -0.0244128 -0.0158493 -0.0228494 0.0737103 -0.0296872 -0.00270762 -0.0237996 -0.0698654 -0.0185618 0.00488844 -0.0102402 0.00915436 0.00788965 0.00277448 0.0302836 -0.00848531 0.0816234 0.0591304 0.0357883 0.0847532 0.0207499 -0.0263093 -0.0389373 -0.0165941 0.0294924
internal_weight=679.35 119.697 30.5478 89.1492 24.1087 65.0405 57.8095 56.774 3.75451 53.0195 27.5084 20.831 11.4552 23.245 559.653 123.098 436.555 432.671 352.218 80.4529 34.3236 8.66967 46.1293 33.3759 16.6102 6.24013 90.8685 25.6539 20.9498 13.7571
internal_count=5744 2428 427 2001 644 1357 1193 1180 42 1138 576 514 300 359 3316 793 2523 2502 2040 462 221 87 241 168 88 68 649 134 109 66
is_linear=0
shrinkage=0.1


Tree=29
num_leaves=31
num_cat=0
split_feature=0 4 4 4 3 3 3 0 3 3 4 1 3 2 4 3 3 3 4 2 4 1 0 0 1 1 1 1 0 3
split_gain=8.67404 4.22301 3.9902 7.00648 3.81072 5.85619 7.05069 4.42164 3.78902 3.84887 4.07595 6.21448 5.19582 4.74765 3.84167 3.6154 5.2481 3.59109 6.00486 3.6528 4.93203 6.09042 4.22027 3.97858 4.92739 3.83228 8.0135 6.10713 8.10303 6.12806
threshold=1.0408022035793951 46.500000000000007 7.5000000000000009 13.500000000000002 264.50000000000006 160.00000000000003 129.00000000000003 1.1900526680445054 107.00000000000001 3.5000000000000004 39.500000000000007 0.00012507880000000001 1.0000000180025095e-35 5.5000000000000009 25.500000000000004 272.00000000000006 13.500000000000002 8.5000000000000018 55.500000000000007 2.5000000000000004 54.500000000000007 0.0092580899000000022 7.7642306049517904 17.200771246388054 0.97992212215000019 0.0022000930500000004 0.0012107091000000002 0.010768739300000002 2.1640976191685852 21.500000000000004
decision_type=2 2 2 2 2 2 2 2 2 2 2 2 2 2 2 2 2 2 2 2 2 2 2 2 2 2 2 2 2 2
left_child=1 2 -1 -4 5 6 7 -2 9 10 11 -9 -13 -12 -14 16 -3 18 -11 22 25 -22 -19 24 -24 26 -21 28 -27 -29
right_child=4 15 3 -5 -6 -7 -8 8 -10 17 13 12 14 -15 -16 -17 -18 19 -20 20 21 -23 23 -25 -26 27 -28 29 -30 -31
